{"sizes": [784, 80, 40, 20, 10], "biases": [[[-1.9127702813120058], [-2.0023625551727], [-0.7476988008103747], [-0.17302162523711026], [-0.5725019886101779], [-0.07009169718651176], [0.06376440322655365], [2.0435596704647434], [0.09789925089092909], [-1.4013884917099007], [0.04664886486715204], [0.7585901988652809], [0.32521698895745327], [0.48923062933654005], [-1.7398308009247667], [-0.7933877966225159], [1.366066147345188], [-1.677865814022398], [1.1036575647435851], [0.9057732629162296], [-1.2517648566788235], [0.06213935860331512], [-0.8439720623999839], [-0.9542641342411076], [0.5629415609102512], [-1.173685725142211], [0.3765088087550565], [-1.3225869927602436], [-1.3851224102247668], [-0.8970870773947055], [-0.27565197028642563], [-1.6650288566577711], [-0.2645228651931268], [-0.038150165148811956], [-0.7093747945989625], [-0.2607169049620327], [0.5015845513493743], [0.46619781625296114], [1.1181215967169738], [0.5280234165091658], [0.5133359073472306], [0.8566816332027454], [0.335115871049699], [-1.1021370339786487], [-1.1855744300939217], [1.5590018519831759], [-0.7886797178514278], [-0.19279493725965588], [-0.4019919449912833], [-0.5843769624898996], [0.650368864607953], [0.9537395048366618], [-0.8422513577165026], [0.31154948703819013], [-1.5400843948095961], [-2.5147051519549835], [-1.070214346311821], [0.5752499926928626], [0.3977591958867592], [0.3743376216294615], [0.14519021365206972], [-0.06481158442766333], [0.3026091351474594], [2.1221297544935402], [0.5839239948385825], [0.31025877804434177], [-0.17256683180326518], [0.4616978490951144], [-0.035363753426334486], [0.7271981638275419], [-0.9148758553978528], [-0.07320673795990798], [1.5028323170777365], [0.679002999593104], [1.5198049692052613], [0.9815307596068531], [-0.38282824640637597], [-0.40669436626512445], [1.6002360611766573], [0.332372378407061]], [[1.1244828902911423], [1.8931981120812544], [-0.838150756039278], [-0.16292827774230895], [1.398750217625114], [-2.7372506409965776], [-2.303906860369111], [1.080599871816345], [-0.24649849954392736], [2.1797322692948438], [0.813980202867772], [-1.0001986287783042], [-1.8244890489418233], [-0.2299828811109224], [-1.2038480607795894], [-0.3176018237140012], [0.3999917787920063], [-0.34437851373212697], [-1.7655169456255877], [-0.3474357008686785], [-0.5569138671400393], [0.16779643488296228], [-0.6543905943503788], [0.2745768756281761], [2.2723055500148246], [1.2940617337320954], [-1.9897979662597507], [0.544702002937269], [-0.8450210809497445], [0.1293344182307398], [-0.29515884278708443], [0.2564558139718599], [1.194326145194368], [0.2304353516099557], [-0.13936837730582735], [0.5769543627509744], [0.9619556876436877], [-0.5886405840470218], [-0.398349865493186], [1.1135159137342914]], [[0.20666403602984929], [1.0296213712192832], [-1.15899966453416], [0.4031658048180808], [-0.7770974854696614], [1.2613027056983412], [-0.0868569235684667], [0.5530124250409826], [0.0844965776116372], [-0.5748855309171831], [0.3676408543301781], [-0.824725662030508], [-1.0287281403683084], [-0.038441800006697786], [0.8417698146758072], [0.2938366581188137], [0.3780181203535225], [-1.7542471438691234], [0.5615046087247562], [-1.166512534117343]], [[-1.4925815955511141], [-2.3237517589291548], [-2.427866632713453], [-1.7392662966979042], [-1.3220769923650466], [0.6537538910012343], [0.6814963612662156], [-3.243966715518125], [-1.1396295911634258], [-1.4768054197357887]]], "weights": [[[-0.029822210688129326, -0.017952078561583918, -0.029911778278951747, 0.00489554817765923, -0.0003526329628012393, 0.0445955799435593, -0.0017537240451365392, -0.005878716541050649, 0.04113056518252497, 0.04889046660559883, 0.0493616842132373, -0.051532603464235056, 0.0010049888892705709, 0.008642160332096306, 0.001190728034688802, 0.01080238729906113, 0.060522389053786284, 0.003147222484495379, 0.037241115598286155, 0.0384723295248845, 0.03559736149496944, 0.06665192583751076, 0.024745333739669143, -0.007333419546301082, -0.05568232940287547, 0.10191078089569142, -0.02693491520890368, 0.02861334068548452, -0.006871704746391126, -0.004237114659799327, -0.09606568783843679, 0.048606083674655305, -0.010618762516918788, 0.10091049651747475, 0.022799246984262674, -0.009323895436079968, -0.08000449611673917, -0.016531860857109674, 0.031115272731504353, -0.0013012075949094656, -0.03918547042731934, -0.05496215546636859, -0.007702126416097094, -0.05167850318753398, 4.058625019804878e-05, -0.07150763269999118, -0.04587064363114742, 0.07075749257993244, 0.0016722842446752653, -0.030171255017928642, 0.04586820816284339, 0.0072393854302677035, 0.02661217976396253, -0.059909920365737925, 0.010154472787773905, -0.016650914721027442, -0.020082215424222234, 0.007063383599155205, -0.02674057008423774, -0.019317067656711564, 0.020798702296632332, -0.011312766281837987, 0.061034092301892974, -0.0012092452258998334, -0.04955118580626729, -0.011294154187632537, 0.011050433594308474, -0.022724717588571145, 0.020925775109284797, 0.01300527817126309, -0.019005476366980353, -0.004686085539493233, -0.007658746562714631, 0.006557555303780752, -0.0011801007428715793, -0.026753613394895, -0.011817992035946813, -0.02276394504540083, -0.008960250670922732, 0.03782995787923174, -0.014724072617688716, -0.051915248938136316, -0.013063936168103928, 0.05104282137576012, -0.00021822973260174748, 0.016079504178543407, 0.014645767195309, -0.03439985461833005, -0.040226555901497596, -0.03483477450204589, -0.02059204606591526, -0.03047983179069425, 0.023552389691560163, -0.0957544641615731, 0.022260869645108577, -0.07535024358897405, -0.01991292267535351, 0.01054413053632147, 0.01309799729102609, 0.02403411008399221, -0.005178774992390272, 0.027164327049553166, -0.08246744782254578, -0.017204817844179907, -0.07562794023393428, -0.012572627985618702, -0.0024104612146837166, 0.01754142814776039, 0.049935730291680275, 0.010161091925555282, -0.0005341628252983451, 0.0037050058273349847, -0.05817485753397199, 0.010830741213209536, -0.020385980500177637, 0.07942131725297207, 0.022382431704362608, 0.047141325843099456, 0.018379749095793003, -0.013756189705587596, -0.025511992564815286, -0.04611439942894604, -0.0586876613159583, 0.03477423501409836, -0.0042922062861440215, 0.07599647362161842, 0.020664607603864495, 0.007197792261568978, -0.03973710009726078, 0.021108689496017304, 0.07034019764873499, 0.018572270885432736, -0.10106589055324167, 0.005971849567624877, -0.007365423159602782, 0.03971375231705009, 0.036506834585260196, -0.006924616866770272, 0.049069886012039154, -0.007068338082772151, -0.03813302855129642, -0.02863748953546366, 0.009350569011427622, 0.05636251754965007, 0.035729541939278346, 0.0094704739067309, -0.02198059687220537, -0.05502024555246423, 0.018607956727755795, -0.06281056545061708, 0.008308180889248305, 0.0412178289440437, -0.06041612014076126, -0.012969673432634334, -0.033232556859255816, 0.05571400777936949, 0.05595881464821784, -0.02856504038663547, 0.021617433117082863, 0.007976072141095815, 0.0031286639829355297, 0.02474723139680409, -0.021054257335685053, -0.013300287035268012, -0.01807874243753086, 0.06278900158970595, 0.021347687714757473, 0.057827645859806716, -0.054897166145108756, -0.0048542317496711035, 0.05644378590951416, 0.01609084300236807, -0.017114601800796766, 0.016091093513049243, 0.08832689676115252, 0.07182933573976749, 0.037817655171139115, -0.005516366480850637, 0.11281567292114232, 0.0011251484254450792, 0.03394685006954032, 0.0888975877856978, 0.014513681424044623, -0.058365795936856785, -0.008026617573712508, 0.019927640712139365, -0.009399530777617147, 0.045202979882548656, 0.046608810397098334, 0.13257833307061304, 0.0011033430996857116, -0.0010438380702939404, -0.014077982230260397, -0.025006543093909067, -0.06315058050761448, -0.029211665383919814, 0.0023496035997864376, -0.055314025511096675, 0.0513652341379231, -0.06845799446859588, 0.05406601174777938, 0.06407726594524249, -0.002397749641945652, 5.2509301587686304e-05, 0.06910430084241351, 0.08196828773192191, 0.1001540171276489, 0.00446980093969424, 0.08571533556839123, 0.05266180566728732, 0.028420981687518703, 0.03614770601692174, -0.002660564135928459, 0.08021103161654096, 0.04145350741135945, 0.06484727063749376, 0.08227751635351085, 0.13050195338339585, 0.11224501515403902, 0.07043032612632767, 0.03615807488263042, 0.07115985682482634, -0.009424822281459971, -0.018991456614919484, 0.004046350806915574, 0.054501100741574465, 0.005845497056415762, 0.03189360622649946, 0.009517934547543981, 0.06650807338461756, 0.10399283894474623, 0.10878783787865512, 0.08104494780812052, 0.10618509507968664, 0.09063344147203631, 0.09577025856925399, 0.039785414796650626, 0.0596888663763787, 0.06131226529206905, 0.027865228930349747, -0.014101942875494891, 0.0174214041549022, 0.005879613063161236, 0.05601268408565002, 0.08568145298413235, 0.10566977560930774, 0.1264808976362681, 0.11278518101191479, 0.04622860061525762, 0.0806938787710859, -0.021571998484905344, 0.03465282712879868, 0.01560773356766697, -0.02725771477009763, 0.01518988653657679, 0.04731237567288454, 0.09061871022904704, 0.05623050624140407, 0.07272724431823314, 0.09769719107709851, 0.142960160363997, 0.12278541991023473, 0.03304923693470441, 0.02846496158320336, -0.021346901739437433, 0.04172129474806925, 0.03362768244081879, 0.09115909606139647, 0.08168482510369439, 0.10619313813181168, 0.05576217024959567, 0.05406442859122188, 0.05988383073588673, -0.0004277314954282324, 0.06141189065332606, 0.05620817337427446, 0.043503207563206046, -0.013786359396390072, 0.00445841214155968, 0.03980927739769357, -0.04102140665873571, 0.04799080029167848, 0.01204249615402958, 0.04159259743327546, 0.10534167291756133, 0.005118922392894206, 0.0903909481038085, 0.036409213297308424, 0.07620577507238047, 0.12936385997505168, 0.03615084988654334, 0.04434891207844338, 0.12052945509435098, 0.031004542449613766, 0.11968018024302675, 0.10953219965953843, 0.05724965925912034, 0.03512330581205167, 0.07990371179731239, -0.004324453894782677, 0.02049713536433133, -0.05243079990294897, -0.022482672854125054, 0.04958320235680612, -0.047248765527066805, 0.0021124312862506245, 0.036022047798118344, -0.005597382010073016, -0.022290577388089854, 0.03016862176653083, -0.06223477641136696, 0.028229922067361357, -0.023094654985591486, 0.011287606038030496, 0.003149553897722889, 0.013155219704168473, -0.03885327291070244, -0.04024767816310927, 0.05261038620879646, 0.09743925980627835, 0.041073217772233606, 0.00466362873513209, 0.003995992166983987, -0.003921252510717865, -0.05310497581716724, 0.03302556466466152, 0.07179966130715713, -0.010555212533278773, -0.07359504201645718, -0.07354507115371609, 0.010775516033151696, 0.0570433836758877, 0.01521736181374494, 0.0693506209089899, -0.04623784876826017, -0.06087543679097311, -0.03432951660024072, -0.07318353267221668, -0.05672580053597834, -0.07912046433486913, -0.09480841852745897, -0.0025898570819928423, -0.012837210475160964, -0.07447114528156584, 0.015531281059825732, -0.020565725504092202, 0.04464579481906711, 0.08015314386505797, 0.06766728581408869, 0.02592659082302959, -0.04103945561195555, -0.11584640914353111, -0.09780819895335317, -0.018519013705612337, -0.12084546660370862, -0.027319056500248375, -0.04151982037242307, -0.07692800905255247, 0.052788381802572115, 0.019796822937524605, -0.05724172627389359, 0.019485246276417765, -0.016857739398746376, -0.03681677689550323, -0.022890886726743036, -0.004916672642604731, 0.004747881139264863, -0.10230377912020341, -0.08779689962657769, -0.02055912259922239, 0.053934721448771226, -0.10053236262053446, -0.042090662761368275, 0.028917860786302083, 0.12785865064043792, -0.034235054155452666, -0.03355615848303836, -0.028758982297491395, -0.07650280106785248, -0.07331287108969087, -0.0399004794200874, -0.05988870882422444, -0.013173841906204012, -0.1206444729890361, -0.062205756432705865, -0.02041259146819682, 0.028628269182969072, -0.07474450904760635, -0.013631071629499485, -0.010832902418773275, -0.013100157665075997, 0.09058325083062987, -0.027139908343582535, -0.025240569166088887, 0.09443584545916116, -0.011524623603435084, -0.04465795515060069, -0.08365878081066686, -0.03033865430856142, -0.01873285919262429, -0.10680861932839504, -0.06135760564687408, -0.019862047218938108, 0.037604364251495846, -0.032150232563545406, 0.037381337821146436, -0.08624876306229279, -0.036066865185374684, -0.05837091867366507, -0.02748171513979506, -0.029696917422619915, -0.017989189005775747, 0.021580671880270057, 0.01703520518456424, 0.0030814606788254167, -0.017609522967688723, 0.030292530819130508, 0.07832172919030152, -0.015411703340634889, 0.02584880565204996, 0.0005453006072692722, -0.002749991608724213, 0.005581728627337908, 0.008581004675700176, 0.05645088045324652, -0.037752445659516666, -0.004050743445588861, -0.08993079516617374, -0.07849305621147468, -0.06297304500241618, 0.01686527420533251, -0.075052392481704, -0.030144721675786607, -0.07992952689393128, -0.04249584735508959, -0.0738915665055662, -0.10696295526715083, -0.008853557189293494, 0.0206602359852421, 0.1472216871141229, 0.0015042529090450955, 0.07574660432220442, 0.018523215792589903, 0.010223522181035892, 0.00829084643644866, 0.01733420676525819, -0.04254342232951238, 0.02623790373778547, -0.006435387867445199, -0.010812007777078952, -0.05575579652528508, -0.005943844963707553, 0.04420237189415901, 0.01704768811207383, -0.0001683241194682021, -0.06784916324419796, -0.08583869190475238, -0.13822699704197752, -0.07909989171052659, -0.1186004956577792, -0.029946899282409793, -0.10367446277082766, -0.012928063542473653, 4.643450910527768e-05, 0.03488320378518228, -0.005604191650062689, 0.034788057620414925, 0.13330855670860683, 0.013594673333771304, 0.020865823487081964, -0.03145343690014618, -0.13931657463351854, -0.029281289492334772, 0.030336256672438503, -0.001062943258074601, -0.021185253910812916, 0.03463680403566004, -0.0318384721569596, 0.017212155404313464, -0.08751090287996084, -0.006171357545278119, -0.008900558862864883, -0.02741140248490836, -0.04941406059482268, -0.15455357684352986, -0.16551153033325539, -0.09890363790110308, -0.04163185537543633, -0.09090733941620786, -0.11499671423021725, -0.07725231811117467, 0.018325216222449207, 0.015735316096307374, 0.014326589452172148, 0.06089601410617994, 0.09058166806949143, -0.009657380054951531, 0.0058770292468164325, -0.031511360905873746, 0.04234723880223108, -0.007096775415263629, -0.03337059135065794, -0.026532242515422116, -0.04538222456008214, 0.05939128404481538, -0.04137336975021637, 0.011232047517926941, 0.018295650611786684, -0.026525653687103117, 0.03095170093218384, 0.029111678866862088, 0.029204179844439727, -0.07796530583726942, -0.10851114369311629, -0.15174324440885767, -0.11588723454046179, 0.006131297658068965, -0.06760093269571378, -0.10979714930626644, 0.05138954058603087, 0.09452321817188199, 0.040132969063827295, 0.0433156021070581, 0.07163041958149344, 0.008639558435900004, 0.063868190746127, 0.02328990479964632, 0.034391902745002985, -0.00855111386788437, -0.03249222776564618, 0.004885841580398346, 0.0015246503574488002, 0.0018265205082364977, 0.02842334936547698, -0.00648773599247575, 0.04720639922576826, 0.09473519412302747, 0.06807920785860452, 0.05721311687103449, 0.0920204709283325, -0.011193048357746909, -0.0453204565100462, -0.1199213855210203, 0.010255689862826801, 0.05167733755936896, -0.048988353837251, -0.009435473966515317, -0.0010501940404909853, 0.06724202344932664, 0.0704508500761925, -0.00487782147947391, 0.042383424322739865, 0.09729815298179295, 0.0400377527393249, -0.04045238614628989, 0.02387367497186354, 0.016854618623252132, -0.04046369059524612, 0.006795291216783049, -0.01456005848276338, 0.019025522553664662, -0.07767471545094251, -0.034818864358826675, 0.030654654663371115, 0.0698548863873261, 0.033715000103475626, 0.04871584643551419, 0.1242776822538989, 0.06563536822569789, 0.0703212385626966, 0.10634035498004388, 0.08415704581327502, 0.020759719330974195, 0.11048862341321682, 0.011891615917264212, 0.003224671573141447, 0.0734994039427349, 0.10705699412516793, 0.0674374825725796, -0.0010710161968277977, 0.027534313736778, 0.013548413279232405, 0.03343729167836139, 0.01537866075608627, 0.016265735663211253, -0.021636425190924683, -0.047330509618039085, -0.017610397357416447, 0.03232958644525009, -0.054926803975351324, 0.0758166467218918, -0.006244708467185229, 0.012134588887973205, 0.02440295931769727, 0.09304140238168845, 0.02636831342046093, 0.023370909512517385, 0.13718133731883891, 0.03923625747713789, 0.043557470149710203, 0.012090955516467774, -0.016158634615519214, -0.015886631102409943, 0.03718255217290368, 0.09544434527687487, -0.057009744931921624, -0.024327643989449855, 0.031802409231273344, -0.019366480044750778, 0.02980945766160816, -0.05868103772873391, -0.014445862919882802, 0.005273368827328043, -0.04006050745152854, -0.057929322454335366, -0.012856480021089748, -0.003559177159357087, -0.06303190637874127, 0.015040759831959266, -0.03716787051574444, -0.04512720901935429, 0.056066799551312836, 0.05387558896949254, 0.02822198594267289, -0.01585316521726818, 0.06412802912150152, 0.09042113869487398, 0.1591060587999777, 0.10061061182385976, 0.04900950186174826, 0.05032513560031428, 0.15514491687707885, 0.07749118384849721, -0.007625502731175651, -0.010819273111791133, -0.010548132690064702, -0.015685876501480497, -0.03740087076637566, -0.025685016988875285, 0.03690631766433081, -0.019996194733487734, 0.07610401561899749, -0.05395935048567307, -0.010714905773993222, -0.039192318244984425, -0.009763961083924093, 0.01216550028846089, 0.027936466358128506, 0.03676986457936198, 0.07516827142102231, 0.053625365042052, 0.05628730862501457, 0.11965999858688325, 0.09952498338369065, 0.10658343057903216, 0.11777387961023701, 0.087680878199799, 0.08115306700143458, 0.10203163116187053, 0.1166657654880202, 0.04240719198864579, 0.03613454768913475, 0.040613622793220394, -0.022770044235977276, -0.051703091911003835, -0.12655200852920606, -0.0779335368988219, -0.04311076164043937, 0.060451467583167114, 0.012198817674278993, 0.08487800600011115, 0.02163075010887447, 0.02349206452911401, 0.002938238732856258, 0.04263981254808318, 0.1000609533809227, -0.027488844431201646, 0.044913283457966975, -0.00861962305530974, 0.03127316552506674, 0.07693304619288109, 0.031899279650214024, 0.09197658000553159, 0.08492904478701707, 0.0499971092195902, 0.08692255763263528, 0.042844764917321046, 0.09224142245523531, -0.050743266755593604, -0.0026958789159221225, -0.005608426076356566, -0.07278832326114157, 0.006162591199961765, -0.03945245542504871, -0.06980814181203604, -0.012197170795618205, 0.021370740623367773, -0.004496639984545443, 0.02160810469045512, -0.026284238496032165, -0.039877123442116955, -0.00355233573832776, -0.04269803425712968, 0.010875592591469748, 0.01461969782644247, 0.01003968054107555, 0.02986381864824416, 0.11488450144912267, 0.043753160230478504, -0.003053228862490204, 0.06352860287513944, 0.019764125225005095, 0.05711800110676718, -0.003416560460458776, -0.035553112383682875, 0.036608797556653444, -0.052699314798199295, 0.08077086542148403, -0.006921839180988183, -0.07103567710585461, -0.015040273116596599, -0.03935738372433349, -0.07870516580447884, -0.1322394198550658, -0.018863789791900044, -0.011253730478629256, 0.0667628290146853, -0.04044078269053098, 0.0017496269367853318, 0.01548931980509112, -0.033618496691751855, 0.005837604404497835, 0.003289197634145495, -0.0016659601430679277, -0.022089566909979305, 0.034049148682789306, 0.04830515892524572, -0.02301725756677992, 0.056125720191664376, -0.05901855321798952, -0.027965575393659847, 0.0015704050150512807, -0.010391690506810315, -0.04088466295018554, 0.04385735132040576, 0.017463283687526938, 0.011931341380899359, 0.0018811237237353383, -0.021857817420027827, -0.009004656956654224, 0.056638139118203874, -0.010735511658965637, -0.06182885453422758, 0.04061458008575914, -0.0005817772168430622, -0.009922514504974986, 0.056727090411000484, -0.0798245925071301, 0.009324312520055464, -0.03137504384405842, 0.012212324409864608, 0.013849404478710857, -0.044487831056863256, 0.03342193919306169, -0.040954452172886416, 0.042086727452897585, 0.056622233805088816, -0.012234759796175615, 0.010141461532041223, -0.008786593645962905, -0.06249727360876995, 0.022153518458264267, -0.005354455303728623, 0.01768202469435707, -0.009029528295911339, 0.028716028584063878, -0.025426981153792102, -0.008652846862977747, 0.086213435654562, 0.04877633581109563, -0.029533207115225252, 0.05993196385502575, -0.011391361205891144, 0.05282203157571518], [0.00014191425439891045, 0.008473707380890197, -0.09791741594720428, 0.010237276398166541, -0.06029786126528365, -0.01625375070144799, -0.012456807941895328, 0.015212786204681786, 0.04295081475865852, -0.020792041726103525, 0.06282430894906299, -0.041393350790207416, 0.0448376893254571, -0.011473694165541013, 0.04709664785000444, 0.07470743679586873, -0.027471478035926564, -0.021479307878839258, -0.06339902572728937, 0.005091498013396358, 0.04086438905575168, -0.011650809175644263, -7.821526605751671e-05, -0.010935379066849174, -0.05435066278298267, -0.005142870211330344, 0.06072434195764639, 0.0019281193214664824, 0.004961483627551537, -0.0070790596635849365, -0.07846651717904954, -0.009876350336046589, -0.0018975210249817629, -0.0209355791147513, 0.026988829712920603, 0.0033272665668188017, -0.03193710117580353, -0.0308652423495511, -0.004807891895752275, 0.009073468117250162, -0.015398088786253025, -0.05116243602991551, -0.045224527623846204, 0.005929020385009752, 0.014348280020278489, 0.027118373993057616, 0.0221817130300593, -0.022524819976075187, 0.04098179145453856, -0.06738581704175481, 0.034583770117329715, -0.01766448138942329, 0.021566616839503682, -0.04209822646307064, 0.04280796746438751, 0.0049873961650469395, 0.026533665698402854, 0.0487090824591433, 0.044293370126123624, -0.006839900450095811, -0.018164276514007427, -0.004354669483859617, -0.012861217781288589, 0.03708147122045838, -0.012965085680263309, -0.02850068497157272, 0.007109145234744196, 0.008462537072476834, 0.08378637238900997, 0.03521663416760578, 0.009115071126236279, -0.015563817259044087, -0.05415366012209077, -0.05585317307818295, -0.0018747155438683743, -0.014663125663640324, 0.03184330444435556, 0.06736248106917302, -0.006179335574905822, 0.0009483825586841118, -0.013947804968067029, -0.058520050642901125, -0.020126139433567263, 0.0064498851372132215, -0.016168903891303203, -0.05513387991448297, 0.05142956247765706, -0.03261161676079289, 0.001669909336917666, -0.0021411978532346674, -0.02404790433674843, -0.01611557967703447, 0.006835068693237576, 0.00016657352633320084, 0.056629088547260745, 0.06357034297898723, -0.006234153954323888, 0.04976034506469672, -0.015511200133237686, -0.04586342366929201, -0.05414225655475959, -0.05365694487533805, -0.03683316253076758, -0.015692450810712896, -0.03394107589127518, 0.04894155224609513, 0.025862131917490712, -0.025940021954377605, -0.005835251119473103, -0.003388472468967707, -0.01907724125941735, -0.04485044762834677, -0.011395652514285775, -0.008805212766628824, 0.025799574578201406, 0.006861457862122227, -0.028829022949190763, 0.020898235131437837, -0.03832523909293495, 0.005019964071529458, 0.031464299568488875, -0.0114526549035078, 0.04650393243875508, 0.004262237096415423, -0.04026011585895695, -0.04573075030739213, 0.01789005816141425, -0.00014385115392016341, -0.0036586826448904365, -0.02392474674763616, 0.0311401652100119, -0.07856451094392397, 0.030822489509397966, -0.01207116854066417, -0.039554550311282424, 0.020341656321599035, -0.011457537318310463, 0.001642490619519542, -0.011711754989891642, 0.03007597871304895, 0.10328237648660954, 0.013639450201021976, 0.019401875397221657, 0.03944019069806611, 0.011026401310959517, 0.01923755061791944, 0.021944706485193647, -0.11046241543552843, -0.04858568915630381, 0.04379822561473035, 0.023783787210279735, -0.01911109588966495, 0.03833347943968536, -0.02343119374872387, 0.0007412707620673835, -0.07039868818331682, 0.014155501048120479, 0.05306786621634511, 0.021775692668692, 0.04987898172231488, 0.03315461618233774, 0.0460564855774057, 0.014678717865874867, 0.0443932732471899, 0.03265978871077151, 0.032235399260389375, -0.03311237823468071, 0.007186507872079042, -0.032140066946397844, 0.018525883385828355, -0.07316550162209129, 0.003692712462291854, -0.052903270250795546, 0.009055260366393559, -0.025728843334220184, 0.015593276097914, -0.04693261336200331, 0.03640528095993603, 0.09854650910903903, -0.03245083574006515, 0.05452201952083211, -0.0025255060073470226, 0.04165499022483023, 0.006700777076673228, -0.024751828724226155, -0.05498538663050272, -0.050600603128296215, 0.03528988892771453, -0.05010722861758667, -0.013179861055676959, 0.03512944520168158, 0.01549336099321605, 0.04092092548372325, 0.01283597762845337, -0.017999928650672493, 0.015083770053487192, 0.04490617813277344, -0.03428214115476309, 0.06308687465162241, -0.01873759684802041, -0.003249217719058677, 0.002265436241404706, -0.02428828184674329, 0.038499054299174926, -0.01609505917499534, 0.015408362458980253, 0.07213967499030749, 0.017227671169709444, -0.026599621594754593, -0.00978020682717791, 0.039023945245704836, -0.024652804019223467, -0.005358773024505065, -0.04536435848096922, 0.009970865261868278, -0.030686615485436778, 0.006834379013261197, -0.021751569725629492, 0.009031885474031467, -0.002885342417475039, -0.04638685412281436, 0.0032934370346146113, -0.00640660468393538, 0.008098239780386913, 0.03874203119900863, -0.007804193753717599, -0.015126538695892089, -0.02015301283815322, 0.03210012899313696, 0.032738360134649355, 0.015800228036757333, 0.008861905128191632, 0.01566856247146147, -0.031253584278216784, 0.01412578455669535, 0.003678296629705301, -0.06193142334668013, 0.0035043866863510294, 0.0030549726613179995, 0.046578194559031276, 0.004110934576079005, -0.013760157242321573, 0.01535483316502115, 0.022469784580499162, -0.018705235957595084, 0.01853657980699329, 0.010745551484409227, -0.06141271442530728, -0.0025643295546288955, 0.014072276065837733, -0.042344698493308804, -0.048406296743074215, -0.016425754686736994, -0.008972759342364554, -0.038333607197820425, 0.01566577299465439, -0.04825153155753051, 0.06584364416732748, 0.06561996425071512, 0.016942009392777364, -0.052680940227412446, 0.018417133690869582, -0.056713494728459685, 0.03667261551611535, 0.007374695263148278, 0.05993305735814699, -0.019879471639141486, 0.0079043683339096, 0.016621392552182056, -0.0097321560296662, 0.0034078904675233857, 0.0022654405306275697, 0.028641202865304125, 0.03429545700869757, 0.00985028241776543, -0.02089190571520404, 0.012394525621041699, -0.022093836714175988, -0.09682068256886729, 0.03743703226346112, -0.03936812040444516, 0.013045189067366965, 0.021085104209645617, 0.014810748553411085, 0.0357417933267174, -0.0018236507093545103, -0.012518084839357173, 0.008451065005263696, 0.02263220372982639, 0.005204084415010811, -0.06517264441739229, -0.03537584325295919, 0.008541349241958854, 0.008083546928777245, -0.02303221547960056, 0.03366918340907335, 0.057140544216129234, 0.040449932611298235, -0.009537028914821222, -0.026361444960469757, -0.0590556879146788, -0.027151167943890792, 0.008402009340169719, -0.004462728524232081, 0.008927600709671975, 0.10752397842868958, 0.014906154765304248, -0.014281881312585065, 0.03852282214902457, -0.0896197666283929, -0.020872304659052814, -0.004318693938177466, 0.021255457829898548, -0.08348801836335867, 0.004618109675543312, -0.045820108834101925, 0.018568181281641703, 0.030173157876483264, -0.019384777443767553, -0.024800781516803597, -0.06634173680653373, 0.05060490749135081, -0.004209965142755912, -0.004626145287749313, 0.023100239800320315, 0.062091131095210965, 0.028748005544140656, 0.006851547404213697, -0.043651328929294526, 0.04067508829935567, -0.015872271319974575, 0.02470582398551776, -0.08512467202616412, 0.012089265629225111, 0.0060130513738323125, -1.6696474888476166e-05, -0.012719261762949434, 0.022631988723740976, -0.03974270336911039, 0.018019231986001704, -0.013238753625907986, -0.016322202978052595, -0.012457278290191621, 0.008444258163773182, 0.005490543618239866, -0.015051772097557144, 0.024104536391422803, -0.027865998454647427, -0.0680859043189593, -0.03045609328278256, -0.00984854748081505, -0.04115537845299861, -0.001503142177462113, -0.0011726226844807233, -0.020874900524690626, 0.03886062673355673, 0.03513262385113445, 0.017112646176943594, -0.03324006390405624, -0.014459346307681215, -0.0869271537054537, -0.04129603119453842, -0.06090374959507903, 0.03589297166841192, 0.0654500255076175, -0.019882772151249783, 0.012511765702825903, 0.06402013933670993, -0.03191148975301286, -0.00892681469850869, -0.029534582357680254, -0.0399762206582002, 0.03354275800900145, -0.05525091296913857, 0.02239632329984753, -0.03503399504818515, 0.038366163990615834, -0.027468978530094716, 0.026966126521160236, -0.028038521822535627, -0.03122505290093487, 0.014674674385878236, 0.00665241617134676, -0.03468782786439254, 3.794109708848886e-05, -0.025166833623068277, 0.004270974533336549, 0.041664269811942434, -0.012464784175570644, -0.02473845376186914, 0.028051394114823727, 0.015538494182730641, -0.010513344497979828, 0.0188193987117788, 0.033606987327896194, -0.0386128954444039, -0.023086996851025887, -0.012162080597500657, 0.046814701238355384, -0.019472093948228634, -0.009686525484470018, 0.004828722945088997, -0.07485017461938584, -0.023718931047045116, -0.012325042117735113, 0.03526452388787373, 0.05737424024598565, -0.006935720969496168, -0.06642803321917272, -0.013782366722261585, 0.10892457586367679, 0.02313266708737409, 0.0420179608148565, -1.869642987801693e-06, -0.0845606862256821, 0.006089488237488142, -0.0350421197424443, -0.038356937687471254, 0.02630518689206222, -0.017691316187735832, -0.0029874039599776777, -0.08378961767516155, -0.02870307571039769, -0.0031308075837746694, -0.028937654006012083, -0.06270743042905004, -0.07804226052904266, -0.0351543735198301, -0.07580752207908623, -0.042205571389025955, 0.009677199601871835, -0.029756542596773936, -0.013104057173618774, -0.01338574913351363, 0.0028659991446634923, -0.01238069406531018, 0.009660098533669201, 0.008350125119012774, 0.06950504523085684, -0.002538416131628848, -0.01995823802592908, 0.07928205524971647, 0.016057812736392688, -0.0023469500738339377, -0.05054735686471933, 0.04395203831548956, 0.015044117494521635, 0.02252386868891229, -0.021138571861890592, 0.0016295350379552736, -0.007888043891762599, 0.025696778245287377, -0.0034811754840836824, 0.03642834859579596, -0.1059240073507979, -0.05915024429083976, -0.04961357931921286, 0.0002260485237968482, -0.036129881632887315, -0.02164934639898591, 0.016270418701796154, -0.03459846813837312, 0.012995943914710964, 0.0072821549464552665, 0.02273034367567895, 0.028708507932057863, 0.030328653916029315, -0.027519226087521834, 0.022547459701683877, -0.028533436811952532, 0.03110749068349983, 0.025783984032691786, 0.009590553454189013, 0.020843027540025715, 0.03401648023601543, -0.026201851296981715, -0.0033914098790217327, -0.006670383153501183, -0.03955346920729294, 0.02518523571332754, 0.03897565844292515, -0.0627730448576289, 0.015025013587337882, -0.012912640651710173, -0.04590997206807973, -0.016648344724012925, -0.045572553180013464, -0.05968485648298555, 0.033787529689162606, -0.007231105480988205, -0.01509735740907621, 0.09213905403105263, 0.014551956992720256, -0.005009623255242649, 0.008189761772012142, -0.03817239106258753, 0.025921178061568847, 0.004369802343162202, -0.03716429690797131, -0.0856420849744825, 0.008511027919393795, 0.008208843003010063, -0.023902333989923585, -0.005678024914723158, -0.02321976884736445, 0.003065469989464574, -0.03260232499714471, -0.03541361602364424, -0.026797127742520938, -0.006946712280991129, -0.0661824510418587, -0.006111302190232002, -0.009369015026703665, -0.10060477817791594, 0.015201121762620628, -0.02077490452570622, -0.004402126446723703, 0.014589577765638647, 0.03426220445973188, -0.005283508480791854, 0.06643263485778299, -0.004728872334472786, -0.023156849313973077, -0.03875855423880609, 0.003805515688059949, -0.03410738625119454, 0.0664458100262776, 0.01738993090682809, 0.019911798110357596, -0.0020167786570555036, 0.04011636499268476, 0.024044883967668185, -0.040004606359108554, 0.008479458074544961, -0.02133930880681002, -0.07606952815790013, -0.0159775252722251, 0.00270240938204552, 0.0443170726278837, -0.08198043537975476, -0.01792734330761032, 0.06420800220439651, 0.04107188106546531, 0.09801389626749836, -0.008724533857795973, 0.07237041848584615, -0.02941591328414926, 0.05572475503902931, 0.07538182449691845, -0.09820985506545706, 0.04770139137599039, 0.04826673685808275, 0.03572246421797105, 0.012185194133078284, -0.04989423252212426, 0.006507828955374271, 0.007580501315157952, -0.03628468134067, 0.04942162581934886, 0.013159510739714648, -0.022253902385365072, -0.019631580186129812, 0.01280032736941396, 0.06836570563332327, 0.026755848112587972, 0.014767961133618793, -0.05251670082860251, 0.010372141853343756, -0.021097713010234935, -0.01671227647389319, -0.006633940014058788, 0.0002865267019994939, 0.02681869407879746, 0.013226520257442205, -0.02247614642670542, 0.014501065336607772, 0.04416110873933356, -0.05877585732439077, 0.012901083196557082, 0.004044987964165769, -0.04357034354593114, 0.03478871387687755, -0.03294136098708178, 0.005005217430528196, -0.05586912221767176, -0.03216487115024812, -0.03416652836824589, 0.03661772971260403, -0.034049011606427836, -0.002598982092323718, -0.0726419075058329, 0.059609609770892566, -0.015488233685497482, -0.050137310946053094, 0.041101080959153095, 0.008795909089536877, -0.04183333200145102, 0.03432274700657606, 0.062320920067547046, -0.004869524610888005, -0.029518809281664143, -0.05869211634608339, -0.03877011877229969, -0.010138665551304568, -0.05260588590688835, 0.005530613225983758, -0.0071660879852326114, -0.007085028278652707, -0.009342561871647122, 0.06061024415084806, -0.034472835928114696, 0.0032205900049121334, -0.009394902981397293, 0.0232619864605608, 0.051535978136400304, 0.022756452770111023, -0.016581447442024146, -0.0022307738392851645, 0.004582491507132349, -0.0006756349470600616, 0.02213385985597568, -0.001776996799513619, -0.04299475736995273, 0.050936730601181125, 0.016955027328072695, 0.02453343816707957, 0.06521765516847809, -0.011121272454266296, -0.015378200976814402, -0.06215808585139538, 0.04953494247892649, 0.01191183210583835, 0.03956343620330643, -0.03610458157285207, -0.002902843315276302, -0.014697054705937787, -0.03399267452339766, 0.053356006706608325, 0.0262405858347459, -0.06309341671440852, -0.020777553888012813, 0.03302483883706504, 0.018899304819185274, -0.0213531256635405, 0.05523823299318632, -0.01028560245049293, -0.006363005025538772, 0.030455450385629086, -0.017239199182770674, 0.04827501546762483, -0.019554312817257568, -0.03965604391502531, 0.05312122790622256, 0.007497593432175249, 0.028453902993475423, 0.047503267312108806, -0.04909440532308391, 0.007102571185797914, -0.006867212183498979, 0.06611279184648049, 0.019615518642106852, -0.029020218480183855, -0.05807013050224236, 0.019865965873090082, -0.011525632069418722, 0.020765731891910808, 0.016001253430861492, 0.02157000169862284, 0.03625967295424561, 0.03371328106212675, -0.018066315019646863, 0.011074806403739016, 0.010467898240458875, 0.06322209310391698, 0.0368346187248999, -0.0292150862154698, -0.026837895487043944, -0.06748481896055684, -0.0402306924690734, 0.0028065582495399146, 0.0012360208203780554, -0.05011924261230863, -0.08060514694141525, 0.06606175500324708, -0.032407767526235434, -0.0004972211085151908, 0.014038147263611547, 0.011228829577185722, -0.015294894147960803, 0.02784612567106555, 0.008762284750077766, -0.007355873512396758, -0.0056423020814101235, -0.061409089770008994, 0.014518857300489699, -0.053194964623862265, 0.054251660916655196, -0.005470293185472414, 0.024670279995014095, -0.009035109525190222, -0.0006467294621057305, 0.027445418319100127, 0.05068713398724289, -0.0032803668724575366, 0.07230467334652843, 0.006842209034196158, 0.036458890049797424, -0.03292195660255695, -0.028257861001762086, 0.0421152698684868, 0.03979201321913976, 0.07950338072236623, 0.04471159247575476, -0.02009958069206851, -0.020557781680083445, 0.002737539377979453, -0.03113382190309946, 0.009863856825366805, -0.011352021963223918, 0.022956452172440068, -0.05945665006680588, 0.025967211983172953, 0.017428083338859375, 0.035053227087955066, 0.009070191380282469, -0.0030998051795655406, 0.02953836108949326, -0.010706768275932954, 0.03967042800250481, -0.012053146049397832, -0.006480052214558085, -0.024180710926843742, -0.00793462241984691, 0.006898239372642106, -0.020441040878872725, 0.04717909629668283, 0.022424466950172632, 0.009656011883002956, 0.007517442757146075, -0.01810011925916663, 0.029337634516778375, -0.002542900649237478, -0.052921212427365194, -0.060567053713741284, 0.034266005212261606, 0.03535688461576441, 0.016264662305840994, 0.024203321692704102, 0.04441195670737097, 0.02299563985660333, 0.0177973916810072, -0.04346989367404442, -0.016685176994817665, 0.015720349135028483, 0.06701507774355661, -0.005518534966027425, -0.06445844573516278, 0.044719335788665694, -0.0031532127628383527, -0.0075147941315276265, -0.030179464253750548, 0.03453823559252011, -0.0008130835002846111, -0.026860684261873036, -0.023038090780629995, -0.00623087371087276, 0.0022678994556631703, 0.0071958133819952945, -0.018463133244444093, 0.0066339431541975235, -0.017335636532890192, -0.04099081593597711, -0.014138997143906155, 0.0007980278447109483, 0.057201663466669245, -0.022389710723949022, 0.0551608285488056, -0.023636753870157855, 0.007207016157105651, 0.026691904141909813, -0.008142178458051966, -0.020963918873706838, -0.04097128970140793, -0.004313996952559099], [-0.005287291847301897, 0.035538645805548615, 0.05780015866389722, -0.057211502112000566, 0.016900905490407923, 0.024568355411812317, -0.022242712314750522, -0.02344746330242122, -0.0037169288362959934, -0.01000771309876092, -0.0022495212313802275, -0.012238385243856318, 0.01608176618599433, -0.040199226297421745, 0.0366246327303093, 0.03899477410591367, 0.0004083238319333709, -0.04028886518737729, -0.0802755736458397, 0.02407831222275702, -0.02935192608828335, -0.028836410444789247, 0.032866467352727004, -0.023631465242816042, 0.0020809942003572, -0.01275564769059409, 0.03745110271735099, 0.0006763923345137062, -0.02335047790190019, 0.05300541041054724, 0.020254337475094825, -0.014547136114998428, 0.015404787529412326, 0.005476891917415953, -0.012041847715623876, 0.008674392974965552, 0.04539367319130527, 0.02429769507160916, -0.031408127081338125, 0.0703919874782023, 0.025096939403234143, 0.015954182500712403, -0.01242118179469854, -0.0018433489415523453, 0.01703151407908787, -0.006904800871317719, 0.014340133975770723, 0.045139993774122256, 0.0365762365107558, 0.02040617031054511, 0.03519648771712855, 0.018757184514910645, -0.01727258769299349, 0.031904446737348886, 0.00972171839300751, 0.06944624368424031, 0.01464336995511038, -0.02162945844300993, -0.007201979479589462, 0.042153688984039976, 0.046900101504579496, 0.06296894844027448, -0.0013576686277452753, -0.023125938296331094, -0.01618441092631379, -0.01268121318447782, -0.05145333838199882, 0.014638197758923676, 0.06440156761715282, -0.03165182091821967, 0.001182677892916994, -0.013413627991314247, 0.00011270237079997182, 0.012956395607761722, -0.02813519228292621, -0.00814829622827316, -0.025013687994889587, -0.01553210602045518, 0.05069197781692812, -0.029136596132397722, 0.016602407281780418, -0.0021596461367717557, 0.025492061888070256, -0.010211885991132166, -0.0001330279296546168, -0.04256166979007563, 0.04598886823080243, -0.05837051658125194, 0.0747395560484012, 0.058234866535211836, 0.01452074341675436, -0.03252362469215628, 0.05078287203013179, 0.025923175617926907, -0.029514348203704226, 0.026799235167678195, -0.0003486024157305469, 0.11104959103726014, 0.04898378166784923, 0.05746682397126093, 0.020182607575625625, -0.04431629602828125, -0.04371458366546443, -0.0465120271451744, -0.03618156408646342, 0.05147815442790771, 0.026697475422967798, 0.060817328945009824, 0.03621904429868669, 0.07056099945464214, 0.016767213747861227, -0.04339693338670748, -0.0605523495858719, 0.032819417557957635, -0.08409376969142277, -0.0041077779682192755, -0.05181545682299645, 0.014788945286332868, -0.05096955866406018, 0.021508715458567623, 0.029430869734251488, -0.0526420890862358, -0.004011617852655375, -0.05412827943435533, 0.1157791472636012, 0.08604505018080852, 0.008117377429337928, -0.034085960082105446, 0.007686350995031191, -0.0044599257475938636, 0.02680582757703367, -0.07963784184658758, -0.03530003450336077, -0.017373660689007548, -0.059458866115559894, 0.00624954904058691, 0.010751467655663623, 0.051074026998003196, 0.038833398089630114, -0.011238614293768, -0.05728740512055404, -0.01349654810411329, -0.01827564210921619, 0.02002038710553292, 0.010982751833924888, 0.021430687501273357, 0.05118778080993887, -0.006145820137793388, 0.06081212559175363, -0.022769073763027645, 0.030894680158355718, 0.0067647967455881945, -0.018357262959397762, -0.029033598511054047, -0.0044130285882061, -0.010686010868536428, -0.0025379905095433185, -0.050671223393643786, 0.03944317818749074, 0.017282944315829815, -0.009059275276960455, 0.06508550265339384, 0.029226099271825446, 0.024203122368567826, 0.04244589146860904, 0.03487920200916316, -0.057033175722629934, 0.07946190443089497, 0.019606637650306992, 0.04236809101425432, -0.06672390733120123, -0.008184531582394456, 0.040466558520995566, 0.0006651125628455631, 0.004981744686891785, 0.05359506249354947, -0.04496827712618877, 0.06438228206514304, -0.02413578403798129, -0.026792839366983644, -0.06582812629174009, -0.032439581806921226, -0.03931151876891449, -0.06871893895162623, 0.038872512795990743, 0.003719519227146202, 0.0688007820595096, 0.11482449554050247, 0.10280759009121897, 0.10874269127907502, 0.08911085597737849, 0.04422006873518911, 0.039933716930598724, 0.035222992060158914, -0.009540454409591633, -0.07686295581364622, 0.00583302723539769, -0.00967486654006019, -0.014455691365758232, -0.024627100198525115, -0.0031281513703860665, -0.04089089926357485, 0.0013032610118065592, 0.03976725780730326, 0.07930586329364736, 0.12154313494175563, -0.005291648664583288, -0.013995367022919983, 0.06211229815070044, -0.0416085798606283, 0.02757327065562482, -0.059279836246022816, -0.015715563162494433, -0.0062432184678421435, 0.047527426277718214, 0.05121930143003128, 0.07405720726621151, 0.1315127081839088, 0.08913423142903197, 0.07897781887659747, 0.04173974800714662, 0.009364146648202834, 0.04133974076410679, -0.027684447493549164, -0.015355630398287275, 0.002157042998280506, -0.03280120902043686, 0.05028097243510293, -0.041117705766652295, 0.007119847119118943, 0.06355360368018413, 0.04384303755880091, 0.08235624302463597, 0.07353836880076026, 0.04075067898092229, -0.01011913928555956, -0.020564025641667698, -0.14541583559265908, 0.0054464228811477566, -0.019897383157725018, -0.004137620207176434, -0.08422869416178917, 0.07115177091332069, 0.11538796343027807, 0.11477018507454075, 0.11280109569165199, 0.1737079975387746, 0.09592918194127831, 0.10787356720680899, 0.08484844522285312, -0.04977337715660351, -0.07090353008086982, 0.006537489458314383, 0.049123396226051094, 0.006982255030963814, -0.07798782712986908, 0.08837598934994283, -0.09422278888626116, 0.03839147912390618, 0.0012961842005194922, 0.08391268283903798, 0.04710983593100315, -0.039942160147306026, -0.09023440054694934, -0.14351414130950774, 0.0615217722954936, -0.02702355953535618, -0.11985378922465988, -0.00696798772675215, 0.006506662958189038, -0.0339463279278885, 0.0991807499442182, 0.018159338281431174, 0.06919665624868275, 0.05902878149985525, 0.03393882763940489, 0.10164373468833851, 0.05611703247877667, -0.013408625373665634, -0.03405049901860144, 0.01780820805953223, -0.04644252342223951, 0.07172982067348767, 0.01697489169314773, 0.06762817800072232, 0.0039330569047453315, 0.030905536511397873, -0.00815810682397673, -0.02416072140963183, 0.05716159355879701, -0.032017157232993775, -0.04739319105669795, -0.0763040793428042, -0.006916940024563761, 0.030378085608831946, 0.09295366119578125, -0.006733167240891761, 0.05711026369393857, 0.003263721405211396, 0.004744036677127205, -0.08917523689696735, 0.01325175896778752, 0.014646356076935381, 0.03915157311786944, -0.020099677967670124, 0.032951356837934986, 0.05476147106024453, 0.0057433774283500655, -0.04462897374408721, -0.0925232364126162, 0.04303678301314929, 0.05545414280601283, -0.02775704423587351, -0.0681699494286502, -0.0015799350792345605, -0.08206217452813885, -0.09146704317815678, -0.06257029123282036, -0.00894147133830242, 0.0712337848805271, -0.012670183703487532, 0.029181960500459646, 0.04228021437744761, 0.012335922790512663, -0.03502617026460909, -0.030079076738018913, -0.014410032417577393, -0.1034457696531847, -0.17196645005728292, -0.10816481799832729, -0.04933421161601239, 0.009324607433456656, 0.062863513489907, -0.007801509468246833, -0.022923245811770746, 0.01770168515878439, -0.0334879251891909, -0.02770176414910889, 0.028764364073213936, -0.03741910141556007, 0.015396789638488475, -0.09902683615092661, 0.022865822219193206, -0.05319607741372818, -0.01937884674539863, -0.03362206851559605, 0.01573347736536443, 0.0388727040609638, 0.10557513759384786, 0.045358531738337246, -0.013592394246374399, -0.09191818560207306, -0.06331337203121427, -0.0008023724833448312, -0.09706604734527924, -0.13455377087350776, -0.17695203564926523, -0.1364387310410728, -0.03054480902773945, -0.04335073949296569, -0.03871038500267225, 0.015213120719770283, 0.010969431189995887, -0.013416302467420241, 0.03470434554717613, -0.00557732085690743, -0.05688494832508592, 0.03284942783892005, -0.020103761343289405, -0.024404559718877977, -0.015348059369618907, -0.07337359458834108, -0.08072417744439932, -0.06838615614221095, 0.10184936553731125, 0.08577526050876805, 0.10533804424492837, 0.05392557716265419, 0.05192145674482421, -0.042386845774929224, -0.03622946234570576, -0.04898823602013353, -0.11608442987183577, -0.18742978866852714, -0.08968147634716898, -0.12235077639654283, -0.012220092938945496, -0.00597846703650125, 0.02285066093445212, -0.019309981703319667, -0.008896931231989435, -0.01682629701752086, 0.04791000948896755, 0.03499582672683158, 0.00953868901059946, -0.06362753330236097, 0.0011091127658402731, 0.04283782833113256, -0.017617649751291434, -0.0524598651794512, -0.04099643467802144, 0.09141610038708936, 0.11967459497844206, 0.08199248485227892, -0.010655203088191447, 0.06197510685034165, -0.026875983588917664, -0.01895111946856955, -0.063469039936751, -0.008677320474795506, 0.03188424942765955, -0.05824775370652422, -0.13846335902631163, -0.02825507714473598, -0.0695967338713793, 0.06967355610962685, 0.029778349722284467, 0.01792104572751477, -0.0026876305134883966, -0.05849761617724737, -0.03269480486809638, 0.029938163343256583, -0.06555730168215804, -0.01032205745553419, -0.04171886772850855, -0.08426577480956354, -0.03270724969771924, -0.04242022982540337, -0.021712376192004078, 0.008833112153565586, 0.07487037581109102, 0.028089969404351964, -0.020909803766197298, -0.008877498596760588, -0.08880919574499299, -0.029126133561944153, -0.07817273071281047, -0.09790877824972825, 0.015709589189541063, 0.04675413670155021, 0.023850631139813, -0.032838907366401666, -0.047045553086231505, -0.012849623888353173, 0.005613675406368424, 0.01640327300454961, 0.07340344090431868, 0.01966019081059403, -0.05176908576034534, 0.019698723446735854, 0.006784438724513185, 0.06514553911650264, -0.03752853881320303, -0.02658118846969461, 0.047561644525665116, -0.047964463706349776, -0.08663235515674068, -0.0521818404544036, -0.05957182914040505, -0.10881566312018928, -0.08520476991579998, -0.08791214697230894, -0.00048746384031993185, 0.018906617550004542, -0.025787641172142196, -0.0065851532118007304, -0.045655808739985926, 0.06952640353705626, 0.05753822235721184, 0.044866965902028245, -0.009909819327148149, 0.02676495563445102, 0.027997639932575633, -0.01870179487229047, -0.026820073447118793, 0.03860122370467023, -0.01563222939588018, -0.045304082769725584, 0.05300131334613445, 0.02210382206620852, 0.05966076793208145, -0.0690333063484867, 0.006637777259246121, -1.8781032226417412e-05, -0.08513096306278445, -0.17520392419510797, -0.12141339162752736, -0.16571171130123286, -0.1278296006672391, -0.21210152593190393, -0.15680801735590108, 0.0890975908900141, 0.045400738803341806, -0.03898598485199507, 0.03246574022238455, 0.0618069867391218, -0.040490866517375566, 0.08326705185440395, 0.10279620654563301, -0.028432477117194974, -0.0030866691814358735, 0.015427236828952036, 0.006084194180514596, 0.05674677118948094, -0.01890359356067677, -0.0011749166701552148, 0.015953118331060365, 0.03327185863673014, 0.10295360601744465, -0.02206660261670342, 0.1499480766576694, 0.1441332967389571, 5.0494673315963255e-06, -0.13255117105652012, -0.16893766399894702, -0.23599317033380673, -0.12758707456874344, -0.21747906775520454, -0.15794956918486153, 0.03995302905627012, 0.09171506789274814, -0.003448413595513148, 0.08663316827307427, 0.005332047460849571, 0.051327026552134315, 0.10636098449180066, 0.06544312957771829, 0.03319651203506965, 0.07206641763441969, 0.05114251444411885, 0.0125353873266528, -0.009885145188491519, 0.009168465035085957, -0.04029411827500497, 0.04388496597349296, 0.08053985277786878, 0.09346988512249028, 0.11712419600665284, 0.1114614216277707, 0.11580290303794528, 0.0902696124896325, -0.028935709182043242, -0.026821566407398058, -0.022264182526267506, 0.05496093339909571, 0.05999878384000321, -0.05536966585724044, 0.006924184600492092, 0.007987866605932377, 0.13211779445528282, 0.07602736977034377, 0.11858965614765381, 0.0649697736342815, 0.14996560640599058, -0.00483529615740339, 0.030574804650462254, 0.031204481423465033, 0.016624165338395752, -0.0018195707899363752, -0.048379196949126214, 0.024506968895260918, 0.013931754489216531, -0.013833921677997421, 0.005976291468493176, 0.053431312197896964, 0.10082527082579555, 0.08509165502067939, 0.08196771284291719, 0.05787654114161249, -0.01706032562815609, 0.01612245678507807, 0.0026460317845208576, 0.06682491952256182, 0.013555599559780852, 0.029691078801506253, 0.020380554878184916, 0.06877081689125703, 0.07478460589863019, 0.025130308324789886, 0.031017919448579314, 0.12431914474488798, 0.08027924439169835, 0.0413862803024643, -0.01681312815856528, -0.01845212540148136, 0.044564205280967835, -0.030140237992952946, 0.035096873534644725, 0.004928151894929293, 0.02528395951132335, 0.012718321877812532, 0.013349123776555677, 0.11214740645676285, 0.039649919604680894, 0.10662328506384161, 0.04625248752782305, 0.019158993921954408, 0.013402394426764778, 0.0051626135652050415, 0.022389266458655615, -0.031313135520698955, -0.08423671427249216, 0.07367922499134065, 0.05199323001847571, 0.0553789189434167, 0.029477994299074637, 0.0006428589602505437, 0.07431434182129538, 0.10863824184590645, 0.10655560954023342, -0.0005574673821416234, 0.02672546020994949, -0.020702815245391082, 0.04869371169422694, -0.008880131701045978, 0.052040888865683414, -0.062316391938557, 0.001997530672152732, 0.030813380091741605, 0.042636350642186495, 0.04626571346799941, 0.08723331770559838, 0.06003706940182367, -0.018803832289848544, -0.04346118880300262, 0.057284275701884164, 0.07172069606671279, 0.06882791982981094, 0.041132550308389935, 0.03797553595360828, 0.015153277975633341, 0.07707699566350779, -0.03918679804009157, 0.060209877470519084, 0.048578027745201674, 0.015858981087102847, -0.009854021978245763, 0.07715458496282777, -0.04125587548066325, 0.0364136964742398, 0.016745540339174435, -0.010551377770880995, -0.024672329331158042, 0.0016916742938755114, 0.051653334552727304, 0.002592111913211794, 0.042816345891001736, -0.011627812300739277, 0.039583879779321846, 0.03913542751752459, 0.06273526037202987, -0.019864654244580088, 0.01893603243610726, 0.08243861234135001, 0.03653765004980768, 0.03495829539056265, 0.10934820282519456, 0.09113589566651054, 0.12265943205414795, 0.10298069435647988, 0.012056260470921726, 0.041801181884500514, 0.0076356864071440295, -0.0020979806572430436, -0.07175008090236804, -0.046578611430011234, -0.08809215829537369, -0.05854801997335502, 0.02538588082865958, -0.007074657292982972, 0.01310725330392538, 0.00889473853677234, 0.04660360507591154, -0.015012642109091449, 0.04855258047694583, 0.02840497796031273, 0.055699770979345045, 0.05645726006926545, -0.0012467728285656735, 0.045450095825802735, 0.0983137800049617, 0.057971848877968114, 0.04752579611517998, 0.027035518580894088, 0.0901700838667139, 0.056923243895184016, 0.12873054282980118, 0.06116086230755216, 0.0007055059642047826, -0.008706010322766944, 0.04220596994757766, -0.003928856864420158, -0.039921873722365754, -0.08882007342590018, -0.01923169709900939, 0.03431471428646265, -0.02088523532131129, 0.0216783000045367, -0.052770908203217136, 0.019267079722000462, 0.01802028745959484, -0.006727859940550909, 0.026954123844871312, 0.024617871285219552, 0.009665290203479122, 0.03130329474740701, -0.002992074099609623, -0.018041259761505505, 0.004498032029193374, 0.07245933309657063, -0.023547066465191276, 0.02607519860722472, -0.012264194549194527, 0.05084774635812653, -0.0891992897078463, -0.03608705352063399, 0.10337075165172951, -0.030277457212367666, 0.01806889080109824, -0.005063518320125089, -0.041338015287007576, 0.025650838863229778, -0.017222892632357472, 0.0010083496971209384, 0.04561771970494438, 0.002171247692168357, 0.037799024262911006, 0.08471793011310742, -0.025352821361573158, 0.0049287082057533115, -0.0612120542822737, -0.04685499589670223, -0.010530571261164917, -0.00824398653540729, 0.012987421929030437, -0.03266896122677638, -0.06346841587441414, -0.014652470913891607, 0.003082252766730151, -0.015764115599351744, 0.008918356843931304, 0.013764330028082403, 0.019243025529291264, -0.009653993768639691, -0.018749644064246895, 0.029010969386521108, -0.015470374574532632, -0.016363230680765384, -0.001556872927978655, 0.013234056119991826, 0.044162174948445924, -0.008206678009549218, 0.013690650182646725, -0.008646252692037193, -0.018850300432084955, 0.009169883932399581, 0.055402909164021144, 0.010742276281974595, -0.012709127916577977, -0.10913373970877702, 0.04936067992749565, 0.010814820784794085, 0.002833527692640086, -0.06014311042190404, 0.03199215009706892, 0.008963016370572799, -0.006889371247812708, 0.0211260075994018, -0.012879745010290695, -0.05229220654404572, -0.007759303544904482, 0.009059172486238356, 0.025889613115856552, -0.003198925732163674, -0.026576233292292452, 0.032358604411031874, -0.031214530687869856, -0.0013091430339350933, 0.035517290274327845, -0.022630901692227534, -0.020055637758079777, 0.056444320299060005, -0.008777525183410465, 0.037613399051710746], [0.01808853284013649, 0.026595465321343166, -0.020142938886145118, -0.051994694892577666, -0.007091081983646596, 0.013832602152210315, 0.03586343119585907, 0.06233236489967627, 0.05835322939100721, 0.022872550184079323, 0.05663672819054139, 0.016718020543282003, 0.020173499459909587, -0.019409712424861596, -0.0417453117377074, 0.02300475243223892, -0.028581802895985865, 0.010792767210102966, 0.0014583916806742844, 0.023427946177816534, -0.06035836300064612, -0.004535402008348404, -0.010646406314634288, 0.02407195645023975, 0.02359081700224924, -0.025101316102283656, 0.027413147278139517, -0.0304252948877688, 0.0003661198593565206, 0.008244355285154239, -0.00967757895991367, -0.017552249608239638, -0.05038797217601748, 0.01875901399680921, 0.0032224749803130073, 0.035245225705579065, -0.04624228281902981, 0.0009697903685664842, 0.012418584463646676, 0.05764113686693793, 0.05748829702712068, 0.027025414572812715, -0.005687294065154453, 0.008875251207148332, 0.06342407665333193, 0.03405399342161358, 0.004636087682900337, 0.05803075747858417, -0.016083907711722564, -0.031049997309632094, 0.012563606388440665, -0.006290406935109285, 0.020003099011667053, -0.0805963375043748, 0.06994150866450553, -0.06193476116019849, -0.059082046676582775, -0.02276410069042997, -0.02009475688647915, -0.03580722988145812, 0.0030489248294134534, 0.011189626517508803, 0.04767325049659973, -0.03256849925053676, 0.006104079027296175, -0.0005449060713700155, -0.020736826321753946, -0.030505483974112287, 0.09102246659337157, 0.021931571516985753, -0.03648625035715143, -0.022208324607249873, 0.05024110998041281, 0.05414526549230151, 0.057978090263074634, -0.048885596692929, -0.027697910261058493, 0.026100666840394228, -0.02256431664915774, -0.01643999609092763, 0.0048008022734196566, -0.03986069922088252, -0.030326273245918304, -0.00770326800270904, -0.020613587415480226, -0.0246979661147593, -0.008118996087344888, -0.033910906021122324, 0.024226729674790923, -0.0031484198293349375, 0.005253237913153243, -0.008754034505136066, 0.06702891918926004, 0.04845785287355272, -0.07328952800053978, -0.019982334732471258, 0.04140944294936796, 0.046692222685604086, -0.013013250878335506, -0.013352142023712432, 0.027450240574240715, -0.011503294786965414, -0.06239430101445827, -0.008236377212068716, -0.031168188176332632, -0.006878518208904982, 0.028609626472245298, -0.011349539619863567, 0.024876444830479825, -0.0015978206662704876, -0.02194413740126797, 0.019677249039769962, -0.013895063739244484, -0.0018792095583350615, -0.013976224839272454, 0.09594823611409593, -0.0048890054749594035, 0.015086821160067283, 0.014997079062935317, 0.07613515200008816, 0.014656478371073301, -0.0006146385963675746, -0.05101937668627879, 0.04004581296759501, 0.06604921756279489, 0.1055003169488888, 0.0019468196970322856, 0.051330283920636016, 0.010053728094286275, -0.05306340619479923, -0.03825572604612465, -0.0008205635951914707, -0.019702873839917923, 0.003927363465550403, -0.047394713057243285, 0.06730800976871817, -0.005075612102162495, -0.008541841347009905, -0.020782466441923466, -0.023751320164281692, -0.011643126182912703, 0.013564443655823448, -0.010337125459798034, 0.04791082263824147, -0.03170358859483675, -0.048575460424549, -0.08203945832116928, -0.02392556196647296, 0.07201143561094327, 0.028148436685569957, 0.03873009353194663, 0.0656189051505308, -0.07747362266536076, -0.0014018991009000679, -0.016502695964832538, 0.0472002948827811, -0.019353717322669134, -0.005321848167372808, -0.009383319715894636, 0.05909666680010016, 0.007455066040903837, -0.007991658200142308, 0.0008269113787671709, -0.06876139136624568, 0.022520579265477687, 0.07630589975703206, -0.002983063576728751, 0.024857050495357327, 0.015539671168946943, 0.014281011614013276, 0.029545869815702355, 0.0473438247416896, 0.034140761960069016, -0.05873453809088622, -0.02239919314414242, 0.06278998637459551, 0.033548482428345676, 0.10263957671068677, 0.05719275122878071, -0.00022767210287625257, -0.032888990475103866, 0.05079021443703576, 0.017747376414874977, 0.001316746174405999, 0.014820417003628059, -0.03092761824713432, -0.0016446029755722705, -0.004327467180128046, 0.010754590117990133, 0.06583255007876618, -0.0028783190863674313, 0.08779562981666335, -0.021568544685799693, 0.05594764613307711, -0.03184904950949887, -0.006118098287636574, -0.0001630657348442955, 0.005138839804459805, 0.07355015381831186, -0.006226817057232536, 0.013073218113050705, -0.0038191490875416493, 0.04087080377913749, -0.02139454602351998, 0.02649090687702158, 0.04485060740305046, 0.027557219059200423, 0.05466778518464172, 0.04621260134100237, -0.00740411452305864, -0.01755808064019254, 0.06072757023065477, 0.059964588216551235, -0.011561347397266407, 0.005575186511902651, 0.012185615472782059, 0.09542857413841767, 0.06088142093649165, 0.10500070645309381, 0.05136384044509074, 0.03629791133554285, -0.014748291545155934, 0.06562100404262909, 0.0072535267326898955, 0.03866269638490838, 0.03255728877674691, -0.0624796025603919, 0.04647269612755545, 0.004531840930289733, 0.0021147000817563367, -0.043027595697389086, -0.009983722080652901, 0.030949114618648212, -0.03353539465676412, -0.010131108593381335, -0.001206738296042809, 0.0449031805057082, -0.01875129441618661, 0.01564980887502902, -0.04002571597960841, -0.005884373784492461, -0.055982362753988976, 0.02875165550664794, 0.041615906605743574, 0.05855992800011282, 0.022408973372312308, 0.03520190592187096, 0.04465910042696659, -0.0336100293348536, 0.024376095636769006, 0.030220178393175742, 0.03172468079982719, -0.023282476499783992, 0.08091508727097657, 0.05631726695189625, -0.03951283572799748, 0.0435384175206854, 0.004611623132227521, -0.02347105612506324, 0.01811125346057282, -0.04741539632616867, -0.09617541885745548, -0.07229172966827753, -0.09530784728305235, -0.03619147974135343, 0.00613477940063265, 0.02486444151211982, -0.011158995628769501, 0.0005084568312001228, 0.04388327035722912, -0.016005286230340667, -0.03263735815735255, -0.0462914863548595, 0.03703147107639114, -0.01545953756952378, 0.026123274243023832, 0.05601824494424514, 0.030018072781721288, 0.0923876493005846, 0.014965825647277513, -0.0436675846307999, 0.051938787965999315, 0.033738491371760104, -0.005141266244363546, 0.050918400055881774, -0.030428375716391953, -0.017875069224221572, 0.020480577388227426, -0.03218311341951958, 0.0036893855983941995, -0.09033574095226278, -0.09052053266490165, -0.035377918832296205, -0.034553877244861794, -0.03232228262607917, 0.025872510298106572, 0.02126637662474225, -0.022745549766978596, 0.0006440913616999845, 0.005753064172281962, -0.014556375371761725, 0.023895818130060163, 0.006564068131670385, 0.001995168437378857, 0.023829707143030662, 0.006092800538933668, 0.06305842889528329, 0.012147603363240013, -0.03672959565701852, 0.009747511323768365, 0.017992093040535832, -0.011707588153021847, 0.004315653879774508, -0.07115109869981336, -0.07262363482491115, -0.06931962436763946, -0.026140430067329364, -0.02159505686716101, -0.006074247641518454, -0.016893821420273795, 0.1066418854672416, -0.019073860985166023, 0.054416178812525764, 0.07798856864840903, 0.036813631242350035, -0.008155886298163892, -0.05886480005318657, -0.04460618688877891, -0.0736681745799359, -0.08496278432727598, -0.004061254142169894, 0.021846830590193374, -0.0006880473069584861, 0.012753174546653695, -0.0128410734482382, 0.02212739584852128, -0.0032425455103296487, -0.012577488411083162, 0.021127048076027003, -0.015253808709574093, -0.029069238031417432, -0.07032349976995385, -0.04053245124153333, -0.013443357361870908, -0.02032107739191205, -0.016437592309456007, 0.06024794660210093, -0.00991110236924679, 0.013619845518940736, -0.04680745557658166, 0.008713351056347797, -0.04591618913454799, -0.023275364679536732, -0.014334954068756659, -0.04355047470378359, -0.03704059056248169, -0.07921076764486884, -0.004695531015930141, -0.06566131324065734, 0.011317129125581023, -0.051632725118573274, 0.0006536618206188929, 0.03533476881892775, 0.02033405336133132, -0.03555405584262346, -0.01747892361091829, 0.015949969863911475, 0.013598937218723997, 0.02366535462074799, -0.02162978922484518, -0.11167711870583162, 0.01840558349428785, -0.05762166608400409, 0.07285432148238064, 0.11232206320366218, 0.10629699907215369, 0.06217703703978017, 0.004199120174579383, -0.03337412488777458, -0.04773916244058414, 0.005114460284184097, -0.04082698746335717, -0.12101047729388104, -0.13188801783321907, -0.010033926181159359, -0.08433868590202162, 0.04669745337325974, 0.0023422412074475415, 0.07257720651757311, 0.020447094211363183, -0.02801600041008442, 0.005578491325105403, -0.0013437384828682577, 0.012091251480315944, 0.028290095935027057, 0.03818242269412034, -0.007208646517671108, 0.002663392819890284, -0.05997476328202694, -0.028637187123398883, -0.05618301681790885, 0.08674149405214092, 0.12908780501230652, 0.01753661092115172, -0.03715319662511401, -0.023828037189023005, 0.02042272031528999, -0.05825488812833729, -0.0834352969680413, -0.03131007982676101, 0.00886518779853319, 0.02356444359486343, 0.006001678766409914, -0.03677592143805569, -0.03767664504686727, -0.02536552482266595, 0.017898644560652273, -0.0017516654191822444, -0.03736097065831122, 0.023854078789576204, -0.00596339317924012, 0.0017864997710488855, -0.05235204506076359, 0.02206036568472403, -0.07833095846332762, 0.049186991671900326, -0.03308197261996181, -0.023921086541526138, 0.01994664942780104, 0.05529250065792199, -0.014472233111692257, -0.06571751590042998, 0.00582676478483268, -0.02059592837618071, -0.09586531424999192, -0.05239132733077313, -0.04218877372106215, -0.0024219371807319002, -0.06655534807059535, 0.08755514835648548, -0.020382337621214153, -0.002576762612096785, -0.07688205206007756, -0.03241682023941412, 0.03163890316697244, 0.035085212523109775, 0.016450846985648113, -0.03131570524040969, -0.008609105699191774, -0.04344722184594507, 0.001982734528764633, -0.0047911748209189566, -0.009849016045236471, -0.023464619783201576, -0.02433583447319036, -0.0047588940931350705, -0.08903561446256732, -0.0894305658877918, -0.08752579119036506, -0.010968397988291754, -0.09072503318839241, -0.13591650847722658, -0.08252032653395086, 0.007735069841748504, -0.004077702137998033, -0.012709498736801644, 0.00543596580627219, 0.01168566417234178, 0.04084271146664494, 0.013066877043147396, 0.05919947452352662, -0.020630655774844412, -0.043936893442376085, -0.024692198302447673, 0.05043889849423214, 0.04616708670029306, -0.05012442186911211, -0.02164868083667774, 0.04650432765483954, -0.015293337108076618, 0.0011645833892775501, 0.05874816643239095, -0.04178503734742268, -0.06960674741669345, -0.09124450817664727, -0.11051505965069845, -0.12600647036399215, -0.1106011991817456, -0.1336221713609344, -0.14285247283239472, -0.0833836767316999, -0.020876996295915343, 0.020128446752201767, 0.02351617294530001, -0.005661412325774665, 0.10996536539962454, -0.013971351262419772, 0.04891343691036156, 0.04582103371924533, 0.043010873758065817, 0.010458450238477388, -0.0023864890197615933, 0.045004436630838356, 0.012106465393264343, -0.018413632414144312, 0.08438512139122066, -0.02234740383751797, 0.03563369764116527, 0.018210045289272697, 0.01894725932854874, 0.021587080266417424, 0.028390892456850392, -0.04548289070575538, -0.10478439516801048, -0.10416859878991022, -0.1057703147433567, -0.16463422898352156, -0.14587706431569616, -0.03504437491677666, -0.021634291542922558, 0.0771086204628657, 0.05173995456748572, 0.04777655552512776, 0.03612876926975608, 0.027105841983702538, 0.0338212214717953, 0.04941510261489229, 0.08005513620115093, 0.03903391232900329, 0.006882213837289588, -0.006868808044179862, -0.00436630172940442, 0.027716362949326112, -0.0076549122343838785, 0.03895406235393072, 0.030628842141532373, 0.047215715444883906, 0.060849373392834534, 0.04682681262942776, 0.050473846882595624, -0.018349352994719483, 0.0023403277780681348, -0.04644642981894408, -0.0688894078618586, 0.01972111271213927, -0.03493738859162385, -0.014068865678597588, 0.07893795495173707, 0.03795948339542979, -0.02960791643229108, -0.02367167759367702, -0.01407680967743286, 0.035737543550018895, 0.06710853450302935, -0.015639445005043898, -0.013946757499869887, -0.0021987191957351343, -0.006731615324519107, 0.04484683658719165, -0.05102726356688737, -0.007672683099285869, -0.01520668951124842, -0.0008570798127305854, 0.006271994269588155, 0.003989687912541419, 0.09369903070068894, 0.04325537841871748, 0.01682241611331051, 0.0477861985621417, 0.03686635807113235, 0.02237147117503492, 0.10871108838199746, 0.057502807001216856, 0.08008680845256762, -0.03239437919526861, 0.012498725580802577, -0.008247948715078673, 0.05055818979476485, 0.020524973127950975, 0.0026255183859649187, 0.04668394369082202, 0.05115083440967544, 0.041461660478271316, 0.05131907699726198, -0.0014793392863366882, -0.005990764247642764, -0.003802402347728665, 0.06090786778886166, 0.005703021543057832, -0.022467623442569758, 0.018191724160554614, -0.0476887348602308, 0.04985284086908878, 0.01889962257378012, -0.010468920703910159, 0.0213422097578899, -0.002094104145170743, -0.0400156953728327, 0.07288921514350964, 0.017590861843738655, -0.012822632645846105, 0.011200016386190514, 0.02878898026849712, 0.04868784081483515, 0.023962282270663524, -0.04359435180389054, 0.047666667712301845, -0.00972788157711192, -0.019624629224503577, 0.0285934441714849, 0.009031171061977037, -0.05866698501621858, -0.03703899993595839, 0.009620034606150771, -0.031962454794419136, -0.00790522491491649, -0.042187520891544546, 0.045236027999828746, 0.005478898727950691, -0.011869333983548329, 0.014865622801131705, 0.09590295439683465, 0.052129839473146075, -0.0395554360732128, -0.06265023225865475, 0.0623685959909277, -0.06573935717884256, -0.0806675061853984, 0.01509267241380702, 0.0040644112175277055, 0.044166493440490985, -0.021951817989067632, -0.08407136720521914, -0.02199956997301526, 0.03463125382536667, 0.022257613479897298, 0.019911580116200346, 0.04400485575146792, 0.0539106846624162, 0.012895701066979017, 0.006799743096069062, -0.02019855894659915, 0.0507709336478913, 0.03935709543318309, 0.0382005166599597, -0.005320797742104388, 0.04008138729085489, 0.05507720012080736, 0.06006936615486597, 0.04223130851118309, 0.0195390342435397, 0.05570803921788736, 0.012188913535091075, 0.055907296099923245, -0.02531233710114005, 0.007944956945120154, 0.018039360971759077, 0.0026860676078351445, 0.003853021457460923, -0.008625531211854037, -0.008660311443112745, -0.10234393285518552, -0.03384649638902896, -0.023321140256136717, -0.09126799391444283, 0.039309365028837084, -0.02090476010703493, 0.04942860143726107, 0.04606005526668525, 0.021406531572578824, -0.012551477438940003, 0.011132556795258578, -0.07217806023431171, 0.0010251487786777853, -0.015388010218738151, 0.05919231842920843, 0.017010227872574966, -0.08222244570188918, -0.005341444818408223, 0.0058088146534185005, 0.04644628135825973, 0.055106157268981194, -0.06822343078144323, 0.005907755381925355, 0.04136734083696637, 0.002049132795453438, -0.024488290880869262, -0.024206022408187686, -0.0760131046295637, -0.0401727972392978, 0.012368331980448826, -0.026102320026750666, -0.01284418996594126, -0.016465081532917245, 0.018909251326949983, -0.029988925937254468, -0.0026359852552449675, 0.012444844991393656, -0.013817625888654766, 0.03253666668719723, -0.030483596942781854, -0.03420043709578014, -0.022685654093288706, -0.04296084165456263, 0.02395829260971217, -0.012678381664142655, 0.0033100730034832924, -0.004099176362457349, 0.0002692255682910814, 0.010881673197194882, 0.038625691202582975, 0.0004795596127717941, 0.06729712746582395, 0.055129773229159275, -0.07623705572865988, -0.027030745149425228, -0.017261103094896202, -0.062183235057600116, -0.039345428484723784, 0.01778970886616097, 0.04897353837728135, -0.026404913210370914, 0.06452422418921046, -0.015859503172007693, -0.008587735998098823, -0.03572566065602874, -0.072362798169783, 0.025332666994101968, -0.01160378003913315, -0.008757724371512543, -0.06913238834322304, 0.018221038075738466, -0.04316465156719454, -0.0028550311327620237, 0.02763004491655041, 0.02252155834607036, -0.015388684599640207, -0.014613128832985897, -0.008319420801095712, -0.032412521934425204, -0.08848712654358544, 0.05998534645737957, -0.027084234459650962, -3.083504249092432e-05, 0.015666359690517297, -0.016429125834458325, 0.01784460346444248, -0.00855363416717962, -0.06420458690958271, 0.03758694549064896, 0.023445201212734232, 0.07567630079556124, 0.0027273871115829833, -0.02065956348200484, 0.044897643585037186, -0.003180097096867548, -0.037625729231818235, 0.03856757133164634, -0.009782381582136025, 0.023089488726100386, 0.028213955180353464, -0.03476002376633705, 0.05652981092641907, -0.00012486198352055903, -0.021710569432168515, 0.03918446790763047, 0.00031903590606285285, 0.034015087823922964, -0.05049420753069539, -0.003455648276593495, -0.0770719630562149, -0.0022877664387567303, -0.0074745670316388535, 0.038580328754399186, -0.021910180876513384, 0.0013742704093827123, 0.006846031102406222, -0.04186307541255407, -0.02561918498536532, -0.01646024671247902, 0.030958562467016, 0.06401947904709625, -0.10465438960529463, -0.019413552199966436], [0.019152769216099107, 0.07046983891188385, -0.023078007133898182, 0.012842601810226653, -0.008058980862685722, -0.0008293655452321548, 0.00594339562759754, 0.016520586147083856, -0.04230883047810961, 0.005061100429128427, -0.015274597986269981, 0.012572440915646299, -0.021392555626941954, -0.01288244756713045, 0.038882163789402166, 0.023465296023181807, 0.024817830876151598, 0.04113659734428846, -0.02164469212424869, 0.03363654978555557, 0.04212130843280054, -0.009464861348902972, 0.0001420379582005702, 0.003155490963387687, 0.0007792901774627323, 0.04162287328603089, 0.03203557603088915, 0.012095067479370055, 0.016124385568734547, -0.06301352130285373, -0.007303454147104115, 0.06603916166967513, 0.009578211763650604, -0.0060260595789639465, 0.02752462595274583, 0.06321409209519788, -0.020642003718341084, 0.05076626171330976, -0.03660422268662517, -0.042294777210961365, 0.01513605251968975, 0.030774890017890424, -0.018205822829427183, -0.011294417122908993, -0.017542154557964935, 0.03024002765711838, -0.021428635005690498, -0.08453333678196769, -0.01816300634287689, -0.06900145057670556, -0.072971927742461, -0.0026671526450288557, -0.004637639224134409, -0.017187508878539516, 0.08896249173126047, -0.013382885117199926, 0.0550501456208195, -0.042240868044517745, -0.06738031295087113, 0.05467889978240087, 0.012715898390262373, 0.025157208095147182, -0.08373354346633488, 0.05336745979994532, -0.006867222117603627, -0.02179992264065235, 0.011152912480658967, -0.03236689506706688, 0.04182300850108631, 0.02186562103196164, 0.025201511766052922, -0.008015365640281175, -0.012184530356695268, -0.03177455028973408, 0.03280616847650494, -0.0415444665373894, 0.02908306779267248, 0.05963809890480143, -0.023546316509037934, 0.0033631517479689992, -0.03797036045998264, 0.021460883223905745, -0.04584565632094177, 0.018915908255305956, -0.027576377253307954, 0.06404374374860324, 0.00019847034170407217, -0.011359482230840046, -0.022506169905737432, -0.036133292081986144, 0.011561435580718022, -0.02830583294752975, -0.014015412428117503, 0.0053965585364766575, 0.0004311847654264799, -0.04984699994083758, 0.024196035826809698, -0.01574684152905472, -0.06708367255780916, -0.0064624981960734375, -0.0023523017638073375, 0.0009661397709051827, -0.036570487961068425, 0.08816740233822808, 0.036476378112587624, 0.039460414907934754, -0.04604167445218591, 0.008868258298795279, 0.0683646615807343, 0.01951758826642241, -0.05376977087900268, -0.007854433773235416, -0.0015682330930257555, 0.029530724122733772, -0.014332035663501774, 0.09773147888119053, -0.023743340875398613, 0.029258358632131203, 0.01149210197779273, 0.019035354591793483, 0.0004592943809848912, 0.03463414617271477, 0.04228101801388009, -0.014053536878280851, 0.02425329584015734, -0.032460497077151276, 0.021696364567543584, 0.04532473059535963, -0.008896616840018978, 0.019920836573963558, -0.054961844944601955, 0.034637918973244294, 0.008776920827440703, -0.032985439594546744, -0.037804017658265555, 0.0017662247418982538, -6.044095110315058e-05, -0.08399518839960177, -0.020069297540221444, -0.029040452240579835, 0.0237040929810206, 0.040593877156573546, 0.010606439951411657, 0.009195588791393755, -0.023780040006194686, 0.020919673842307418, -0.009850332971097607, 0.014381513559008225, 0.059478597529992384, 0.012940217756946346, 0.01581646888458095, -0.018337214590204726, -0.010032752712626951, -0.0044369885767191804, 0.04235014032652654, 0.026055314571786104, -0.06497088885352434, -0.03042607930085771, -0.09104573936113651, -0.057378022861097354, -0.010811852073908767, -0.013228007320568823, -0.0077692827137872175, -0.04416192747092766, -0.013372452307864711, 0.044155688996290014, -0.030657851454303893, -0.036511415060070475, 0.008178935667547854, 0.04113811116162958, -0.011509842889335268, -0.011324137050339753, -0.009833899811954892, 0.09792041258059778, 0.06078034900905072, 0.04593473637989186, -0.04653474352997187, 0.037113862863059184, -0.006405466443628365, 0.0005026708404707903, 0.027309342342211065, 0.0197457933718059, 0.018163007331600912, 0.10789514733228599, 0.043186972710193665, 0.12163373683971711, -0.10382677593654947, -0.03948430909130497, -0.1090287525095723, -0.001396007685306511, -0.022958318736190135, -0.05914833981595943, 0.017377805180847253, -0.04993140875076033, -0.018693611855757276, -0.012400968664028091, -0.036729009244424134, -0.051976162522201594, -0.032684000843765736, -0.05808668922227616, 0.010379007230695948, -0.04272193389829075, 0.02379732628106112, 0.07539141005395715, 0.0432253320101048, 0.0446272477364487, 0.01094024078337412, 0.08007346363967716, -8.662823831397577e-05, 0.06839503777330896, 0.14036183792775034, 0.17396960968173797, 0.08389264712115412, 0.028497628085110027, 0.04235830560848279, -0.030806002932623245, 0.038561194708723726, 0.00228888033168215, -0.08054946629517866, -0.060101160983511065, -0.01505042173651654, 0.024330206998968852, -0.01665485134843502, -0.039557329234007524, 0.012979775133570086, 0.013048342878074104, 0.032982443576868366, 0.022218471559674005, 0.028809093667495945, -0.004354989224435473, 0.03486782836865003, -0.03782328438280493, 0.015971961552321445, -0.00881220458462883, -0.017141172343519556, 0.02854006809190765, 0.06639360290958626, 0.08048615056148678, 0.08574011307883668, 0.15123503584753867, 0.054844688581043015, 0.05319222843394936, -0.017956955891752446, 0.028756335458723192, -0.014245979192408165, -0.016160582756361248, -0.05277462341081364, -0.04136682604420009, 0.019699598153345266, 0.005658116407421018, -0.06241624279693423, -0.021237154682753633, 0.0701548736529395, -0.00029310413571223266, 0.05418244176110511, -0.0010901042341479826, 0.022155520531524878, -0.021178194528813952, 0.0077401519416228385, -0.0037558125462434145, -0.005491669524115089, 0.046862867821050175, 0.055175888509378594, 0.0826051784015644, 0.04183030746950956, 0.01171360484252674, -0.006873059934291051, 0.01581306611721734, -0.0006335576437387321, 0.06104472306166852, -0.0042340191651037895, -0.020850421391732238, 0.04865357855870514, 0.055393879419565334, -0.02508201264431165, -0.03580882932999167, 0.016539307180249513, -0.09387180231469355, -0.008129499263724065, 0.036310322860042606, -0.04466012283625407, 0.044134992778966334, 0.034700427679316706, 0.08276409443042981, -0.029422201569440597, 0.03547130594529013, -0.07998849713908043, -0.012597514516834113, 0.0012518349008344006, 0.0248909364600403, -0.021329468961828038, -0.008814774811281753, -0.01898938616885305, 0.0022661340764789915, -0.09038559882797756, -0.00591095056967163, -0.047767773028671544, -0.0016444629824238228, 0.07180600028538615, -0.02996628340924744, 0.054239700905746105, -0.006155490549776808, -0.04793977240182765, -0.02465733748660497, -0.005644192113329477, 0.025153017873179757, -0.009622774163589037, 0.07520646340403847, 0.026281173715520533, 0.06112290181136062, -0.06595016699573825, 0.009610662855711733, -0.002854487064535275, -0.041852560870250126, -0.0028044501021957926, -8.609803846019233e-05, -0.019412630037954643, 0.036314780350466286, -0.04954793767283252, -0.0004174249600969894, -0.02268193577215125, -0.05972038943773226, -0.0575820973022599, -0.03321248916651291, 0.026990931370382124, -0.009390041671444438, 0.0775639008766246, 0.046547892455235974, 0.019605669434817875, 0.03792187818818396, 0.07054576501541704, 0.00418701102466483, 0.0472805733276389, 0.02148367284863538, 0.004210305211395764, -0.04982306072093641, 0.0038482718914889685, -0.050475449581948745, 0.01768556942185889, 0.0770731592837918, 0.0020750214003632857, 0.011460504224462278, -0.018266244702603338, 0.050698190966807374, 0.07744554052990536, 0.034207612575571734, -0.009535872444379733, -0.0633403015145296, -0.08906413376832589, -0.05035850261510331, -0.05699945554327116, 0.00209699170539988, -0.0074014107245077695, 0.06176036361203442, 0.0461516146767434, 0.041510626378733935, 0.08983020350945117, -0.006609911494357846, -0.05333564220505988, -0.03253333428534764, -0.01506936026781946, -0.009951907032077295, -9.699210155345835e-05, -0.0033071226809007793, 0.02826376604587693, 0.018802109198990773, 0.019986166836384146, -0.022182233583104935, -0.02372688775522383, -0.012198836596597347, 0.012574167488692936, 0.030514716209527896, -0.05356173367322327, 0.003196217269293059, -0.03832794507362816, 0.011776808586065356, -0.095410083527247, -0.028774488574673126, -0.11732543159282302, 0.033153521538772115, 0.007077077758841689, 0.08533273566097233, 0.09977104491745122, 0.08755227767158597, 0.02616296663087462, -0.01623680311726592, -0.02886536785813974, -0.0697344428185103, 0.042180353750085144, -0.014548814411454166, 0.015761457776004427, -0.01696055546666981, 0.0029928445092051196, 0.002164757040261969, 0.04272279350617212, -0.0009255085491695731, -0.027575846685921637, 0.01935789365084196, 0.028067967051183564, -0.02588370889170761, -0.004819232571017983, -0.011289968987787035, -0.018510387713148176, 0.014392715883251792, -0.054482062692903, 0.02100011988862914, -0.024979300924379107, -0.0035194106692164294, 0.12122339039796523, 0.1281455929025689, -0.0029969321830783753, -0.02215368029195064, -0.013678397163993558, -0.0018609188270618745, 0.04038995111357563, -0.05289036770944183, -0.05950004162040243, 0.002715866512278061, -0.0005700032546373172, -0.06801575263399441, 0.043922632113444667, -0.012251564961393178, 0.008035508809594041, 0.04183333801001073, 0.03631873538307425, -0.014012586420240353, -0.04260379435914426, -0.02933788233819397, -0.05867260248195121, 0.035316102343505934, -0.01189798358345981, -0.08087835567088378, -0.021186493238744733, -0.06731966473131314, -0.05347556686327648, -0.006575915048367919, 0.0617555531384162, 0.06437093196901365, 0.0523384148040931, 0.021366926161282884, 0.0015289984619623023, 0.051440410041681046, -0.014235645500084973, 0.01221571806066355, -0.015275219167167172, -0.020113709548612937, 0.03345928331477305, -0.06178394076655129, -0.0038116923448394267, -0.024592593234863992, 0.055557414413545204, 0.04750243749347991, -0.026984331226564667, -0.0328114066730531, -0.039381285751308975, -0.01205100777402537, -0.03610467617416412, -0.0014447167803693544, -0.010919095952003029, -0.012239083474411742, 0.006957760395580394, -0.04280668047433335, -0.019955930605112776, 0.026076153364204678, 0.1036756068074086, 0.004339366142034099, -0.022375805445158353, -0.05306877830903536, -0.08045192439895796, -0.035553956165417684, -0.05094484082091505, 0.0016395407854590792, -0.008888118120307133, 0.03490518643787909, -0.011729455443974496, 0.04742046952227972, 0.0518437134109885, 0.029403778586689806, 0.03637162304296107, -0.026971279872377386, 0.002164618997351692, 0.02798852774768984, -0.005247178900795893, -0.013467418001714358, -0.07883503260155088, 0.08304527116187468, 0.02977653742711025, -0.025468105590875346, -0.021638285635394314, -0.031455470637319044, 0.005841802950044897, 0.08136555599346076, 0.1066502432871879, 0.0034096659336205755, -0.009206283771714945, -0.043800872263167895, -0.06929374696285516, -0.015892774796382913, 0.036182053356822154, 0.026430309350055206, 0.02268331104868456, -0.020319877641789826, 0.05523725491312771, 0.0770797645573734, 0.03889665058070241, 0.08715188541889674, -0.013272533333289014, 0.015049736116230636, 0.021293652835746024, 0.02137121525932997, -0.027634271239705244, 0.08050615141270052, -0.015275729894702442, 0.011450942244507082, -0.043837170389898955, -0.02307328281284713, 0.04170905934303466, 0.10576007707515853, 0.01376112870075089, 0.05415510320041574, -0.01733714474152746, -0.0057936472946545125, 0.06812972517473881, 0.0409142690241237, -0.06686541780342567, 0.007579063377794414, -0.0242116928397738, 0.003955408678002941, 0.002046984430177079, 0.01545411460914318, -0.02368789187314802, 0.06396303306768109, 0.0432869462245139, 0.006258927113256487, -0.009147222186974351, -0.008145981170751609, -0.004206531533692913, 0.011576735753015412, 0.033264214076221064, -0.033712194375879606, -0.056134906304136166, -0.056587002884163864, -0.03266978812218669, -0.013293976847841414, 0.02940170844696319, 0.05451522357821462, -0.06372675782038026, 0.0004015033561927561, 0.0012823053750190343, -0.04624175672112281, -0.015316250238992597, 0.018643299874435238, 0.05181678946635005, -0.01394219609845798, -0.02351824002571414, -0.0020651851735505166, 0.01656244932865396, 0.034544793647781805, 0.019247946604378983, -0.025936374317396066, -0.007966899019882394, 0.010263302184124677, -0.032848498696742175, 0.031041904405122177, 0.03522644312887275, -0.028789066784412672, -0.02421631840283868, -0.015867979894871768, -0.0075002021386882355, 0.0061108619856087175, -0.031095363704150582, 0.003764489792449469, 0.03974427294888076, 0.028373517025190306, -0.05123259262386338, -0.02031433502182351, -0.04187934143212774, -0.06354990767762324, -0.059189336590855304, -0.017875345193772478, -0.04748615360725428, 0.05732490023133962, 0.05156524709343758, -0.016754944160546834, 0.03363305353438468, 0.010954296661644191, -0.003437481473858494, 0.03950004117664495, 0.04513179416901424, 0.022888761672843403, -0.004424233305127078, -0.009621600437201979, 0.02350568104256921, -0.008888757132163895, -0.06819457311908572, -0.02512967289969859, -0.08649799514319796, -0.04316857216583476, -0.06185317998956818, 0.005259151326319228, 0.011608591114417505, -0.027133114178883425, -0.046162136714890896, -0.02333488985766172, -0.06790277467936907, -0.008299882539091452, -0.030655315740430036, 0.030713121344873393, 0.004726751068011963, 0.026453097019854654, 0.011148637266745563, 0.02056154490750245, 0.0419906890067992, 0.03159329450308566, 0.008812298979341463, -0.03512412204216796, 0.016925436741646073, -0.015365086102060888, -0.004376954438602443, -0.01718889970539249, 0.06195449026157635, -0.03265304220968776, -0.006428371586267042, 0.016672397604220696, -0.010131365534966935, -0.03838006924869746, -0.045283457233939436, -0.0791761373432628, 0.0528693754487414, -0.04780702926671775, -0.058114166867745315, -0.05615349580227656, 0.00031191217484366035, -0.02027241482816067, -0.05234075792611999, -0.003765966062817622, 0.02837501235538319, 0.009335420485099983, -0.04999513508600517, -0.04659742767423529, 0.009536878861252868, 0.017244184234145667, 0.015539143221287043, -0.01058424099928687, -0.007175417054257117, -0.011752620943685963, -0.02467835753315557, 0.014322644543622478, -0.009031775263943524, 0.06808309015527, 0.015814706635416866, 0.02711075535047859, 0.03254344169351193, -0.04706572017440275, -0.08235412101738365, 0.05355204503691449, 0.015127486437936228, -0.02326520111467053, -0.02878739214438877, 0.028878866805137675, 0.009214883532332855, -0.01694130079621078, 0.0573870594324007, -0.032479602680798685, 0.021425920326954267, 0.08331353316215859, -0.0008650663802288688, 0.010340110998941927, -0.03812398728409874, -0.014638611026424634, -0.01275730695933893, 0.07904978274338911, 0.0548625590596885, -0.00454582019272686, -0.033245993459905754, 0.027401284797998676, -0.008085534618822214, -0.018552148597676416, -0.049887846464621376, 0.010561785438930642, -0.04114769936927678, 0.010103324375719052, 0.033319107249246534, -0.039408016252067656, -0.056655130124766966, -0.01789340207967348, -0.06473258806912281, 0.025094930602867785, -0.0344097275378234, 0.00028675854926617266, 0.015697719696673162, 0.01383044704523489, 0.03353168109414305, 0.02962922859411546, -0.03627767392725561, -0.05221757031398224, -0.00164709866770415, -0.011732719820512766, 0.029197510204044486, 0.013955319508883863, 0.029106419041251087, -0.053880302212586904, -0.023439336725014772, 0.04500957819475224, 0.016165285963013698, -0.00667983424977167, -0.062335336301602866, 0.03333251938868104, -0.03952294301945007, 0.03510699861301489, 0.03632805377370407, 0.001182781896373179, 0.07779233623003726, 0.02642768637187049, 0.024967343233284565, 0.08764192894752923, 0.06283813434487359, -0.007472954985931047, -0.0014498540535003144, -0.06837654364597125, 0.019659342322912367, 0.05747553039994179, 0.023106257813306354, -0.03422085489324745, 0.025915416406311637, -0.02075624163513732, -0.026823299544818123, 0.024175789959819144, -0.07346110820359085, 0.016448896676248152, 0.030209917088700692, 0.03542997392711352, 0.021789222591476733, -0.0012325791072626312, 0.009216961776384444, 0.07406077607396587, -0.022638210364234038, 0.043677561187828215, 0.0026123991563148804, 0.003733729795350046, -0.026633038000316734, 0.028720267049098754, -0.05012927436053056, 0.00098586869997331, -0.016567643434429527, 0.014823995567133423, 0.012616430905081537, 0.02505542216354125, -0.023084002848246157, -0.02639408681642201, 0.041335953606991584, 0.020580636134366902, 0.025921047244058748, -0.0029088232723502856, 0.01769545289977231, 0.012621993918117457, -0.02122232490996794, 0.04559179371796017, 0.05393301248427352, -0.0509605376196135, 0.03834510197628336, -0.0526768248860282, -0.010872176730987074, -0.024873465348378653, 0.05226084375267259, -0.022221197934353433, -0.00887892067694023, -0.03145209053911847, -0.027020941245997313, -0.021178450338689807, 0.043161459581669594, -0.045547431948237495, -0.042913466416726435, -0.017254925669756765, 0.007700041956702392, -0.0074159418096196895, 0.005399332405228843, 0.017154802852940798, 0.003765606819092731, 0.036812347981386974, 0.0821136975595046, -0.05943328355047095, -0.06992452813176546, -0.005822846274637439], [0.011611513953325091, -0.06174263181077987, 0.049318860226561345, -0.026400955393401843, -0.052979845615559094, -0.021752845081991122, -0.06290706490466864, 0.030939905617057846, -0.00538944607287732, -0.01899650683363821, -0.02315631306045795, -0.07754955879675242, 0.02649778756171176, -0.015229719504293445, -0.09607602935427595, -0.007734507383081768, 0.013925418610745059, -0.06910082522638049, -0.01289901121038291, -0.027797133180007903, -0.03559326674382519, 0.042303733512561115, 0.021980898686499422, 0.011618186178075468, 0.04759818726839281, 0.011306638366235244, -0.0008408389721974178, -0.054274087511444746, -0.02013336142578821, 0.045616447198958666, 0.01322710189833684, -0.059039049618720536, 0.03200772232280775, -0.025203774507503798, -0.018620426541796083, 0.02030490210930575, 0.039263978762220896, 0.008457498147829338, 0.0014276853446722896, 0.060440034337177644, 0.032594969776514784, 0.0019250005775441185, -0.007445762813016116, -0.0026665502866795553, -0.031504165965088544, -0.007907444214387131, -0.012995020504443539, -0.030267840986404466, -0.007311311027645009, -0.005657144486651591, -0.04686344238233863, -0.02057787376315027, -0.035094819064006556, 0.05011116648057439, 0.04093718971797457, -0.006145961657831878, 0.021503783265763254, -0.018902378351451886, -0.005544832861014424, 0.026911541950024258, -0.014394851025005624, 0.030143582013856352, 0.041224601274785784, 0.022476606402439397, -0.04399185822796325, 0.026882551908491578, 0.0520112708041689, -0.03607512775653377, -0.06747514194522208, -0.033465347144455565, 0.0041128560752861166, -0.06077684451848268, -0.02701463947113288, -0.053884465087369174, -0.050066751042241515, -0.08136073256065983, 0.0025239421283459245, 0.028606985525143905, -0.02367328478755513, 0.01995177986152675, 0.0505520873415841, 0.02632761504557526, 0.027491314173349213, 0.029170991538755263, 0.05070087469792766, -0.06695275023835957, 0.024025453088648112, 0.0008458283167644225, 0.031027749975202655, 0.053140545248220615, -0.032526408740728485, -0.06267189433773734, -0.0498241525904121, 0.03553276265725623, 0.007478857670776895, -0.06679816025051251, 0.06641027447604235, -0.054963763944100075, -0.1257656330543038, -0.05418400038083649, -0.10039947123469549, -0.08130518820491224, -0.08745895283014958, -0.13650762143283682, -0.03184769414177289, -0.008657030850500482, -0.008378219664772892, 0.018722212618658775, -0.00811121087309149, -0.0789097240631867, -0.0035341344670096067, 0.010224620386190608, -0.03496670567533152, 0.015288296595997786, -1.0668273750853308e-05, -0.03338019137295844, 0.05114962579023604, -0.03187367868352343, 0.012600740112742021, -0.012569833108527358, 0.0005057107234371897, 0.021216452954371526, -0.010864315669326281, 0.011085423480608309, -0.022251257812580024, 0.0032776264102104178, -0.10365098959391879, -0.07436658953241365, -0.042895368730595976, -0.0724832735390869, -0.03991926251697336, -0.08699902800298871, -0.047621607680648145, -0.050228109401660254, 0.0982626007102711, 0.0616125701468682, -0.03859973717047701, -0.020262047392982697, -0.010005379288464998, 0.023740663843901305, 0.06813028922564092, -0.02524801109232383, 0.028211459833240245, -0.06584858027516188, -0.02495399141359701, -0.020925887544144116, -0.04635232902258559, -0.016328624898867286, -0.023577076100832706, -0.08864643282265092, -0.10561216281057705, -0.07027903712459799, -0.10079465944763823, -0.11971269291864838, -0.16858955930835365, -0.15588037129754345, -0.19160408643683852, -0.17131947427357544, -0.23951814143756028, -0.1840693858691205, -0.14955098380345916, -0.08801036759453504, 0.06360333380340769, -0.05104016988205148, -0.04994487037229195, -0.003407114479362851, -0.08725875842702656, -0.04060772403988636, 0.009803461513955647, -0.027109243967406858, -0.005008575688228281, -0.0291698313299176, 0.017724747700136382, 0.011505332463012687, -0.021749609616763563, -0.018879716090021415, -0.042974812682610664, -0.09554271350312141, -0.1798991714548019, -0.07542857779828178, -0.028837280230948305, 0.06905089025952887, 0.06608806991584364, 0.01052587989711514, 0.06610966224924372, 0.026319706150986062, -0.0450636807176057, -0.10106063326534133, -0.19312838388492817, -0.19582491413734615, -0.10504045066313061, -0.06382958322621085, -0.08877229342050569, -0.04926844753003578, 0.05241659953976894, 0.027672693281382832, -0.03139432045644301, 0.04993954286521849, -0.07476696992994958, -0.003850623692851292, 0.022254287694202242, 0.004076261320817786, 0.036417791343968144, 0.014547303065205604, -0.06744233520053314, -0.11144581312659646, -0.036537389875436234, -0.0959867541853411, 0.03550799875405706, 0.15403492091898857, 0.1566239338065273, 0.09040363148251103, 0.09569521507114265, 0.11394236999543807, 0.03399176302777476, -0.04213010878060129, -0.19730706451255467, -0.1332210471610805, -0.1918144422306619, -0.18579362984640993, -0.055771166835113115, -0.002665263477223323, -0.017241106041574833, 0.01867651402409193, 0.02077540517781658, -0.05951978306133477, -0.01370410781104603, 0.015709859085317437, 0.019763116276947, -0.05247467093861613, 0.015422216603088608, 0.07990753950613266, 0.0498715106890208, -0.11942907872952878, -0.0990598791116634, -0.11870545185274388, 0.15222270025210038, 0.3133228496085181, 0.18343522237402324, 0.19242697568095796, 0.1192709680782399, 0.01789894318710719, 0.021793929360449726, -0.1574569441179146, -0.1218374121756699, -0.09183559749353652, -0.12206277996149176, -0.05121227066389798, -0.07375312214314182, -0.04552189872072014, 0.023953498242830787, 0.028940234093096588, -0.0949595486794168, 0.0340280701844621, -0.028804738672459414, 0.012596274442283291, 0.1082254554459939, 0.045669199353963706, 0.09858795212879218, 0.16811267200251684, 0.07011134892097175, -0.020760990538593642, 0.014778284878818729, 0.12748029800969046, 0.22033086740371255, 0.1831893850786261, 0.25707610737270925, 0.24753232708496117, 0.12653921537008267, 0.012086574893319635, -0.051382485670687844, -0.24714231959700053, -0.04126258686671758, -0.10029848099392397, -0.035372944678106415, -0.051113630814393594, -0.15603541866466825, -0.022085008213733947, -0.030168404225853422, -0.009740801225082613, 0.017489693470790497, 0.0019158335812785386, -0.009984476618072408, 0.06860051505040639, 0.051641891945711914, 0.020956894936076175, 0.04566387280760447, 0.059668879764766654, 0.0924646156906808, 0.06516466191712997, 0.0493541745416755, 0.017325690618916777, 0.05455498040701481, 0.18620257946249832, 0.20916063095824108, 0.18157700946618713, 0.07435468478872491, -0.04159759887250266, -0.07754308567656956, -0.041869627958739795, 0.07041548828187198, 0.04267557550987162, 0.0379229604992398, 0.06628067661110815, -0.028027752745516728, 0.0034612893081009564, -0.04476434725408874, -0.06624867722554266, -0.03474735063863512, 0.018180684795177506, 0.012431140717809003, -0.01865455803277816, 0.08678340567316097, 0.05810691363311619, 0.05390756906293257, 0.006014946603282539, 0.07766067438913454, 0.025358209042314964, -0.012109911995836442, -0.062079601798560494, 0.02803777502285656, 0.19339550656958646, 0.20499872336589425, 0.14175830211291873, 0.07001384144758718, 0.048844829435671915, 0.08966390704790454, 0.04599912988631246, 0.2016071212133608, 0.08450182009597737, 0.07835886453322943, 0.05771936562661533, -0.07604288429597851, 0.002993430357450072, 0.060057026395192704, 0.0208954857148779, -0.03626766226899959, 0.011165500566957486, 0.012679057345815517, -0.06796002421314966, -0.021602441462041506, -0.01954318565280803, -0.087364115190354, -0.0909543685007199, -0.0013284787824297535, -0.0749132951861693, -0.14313773215231373, -0.12698045225252183, -0.08174365212224359, -0.005386475179667619, 0.047824554617654114, 0.06129988299111801, -0.04953791576808743, 0.041271004874729074, 0.07278071097581429, 0.09075202802612937, 0.1376827946206459, 0.15274866585051416, 0.08367309705293605, 0.014522594729579211, -0.13394185247609272, -0.006696785562939935, 0.02218781762826453, -0.042426148877300465, -0.05621017291406048, 0.019133400102241842, -2.573104253780148e-05, 0.02800763860261245, -0.03858205808093557, 0.002458935991366095, 0.00845459922651616, -0.03060820262249521, -0.07266095771248055, -0.05115381920200768, -0.14154576350680792, -0.2797513927546306, -0.23610334160140123, -0.09514726814682767, -0.08981383326255084, -0.13664423309711998, -0.147484383232105, 0.019416958145898593, 0.009362264845922872, 0.13898210212588316, 0.04313795328875894, 0.21162029145546613, 0.05787823323384686, -0.08266485779323905, -0.06804002011067209, -0.013456142525186707, -0.014263721919756498, -0.002184365405396596, 0.001992549492660486, 0.024005563719229153, -0.01971538307724247, -0.04919026093047851, 0.01747967048631605, -0.045119240671121275, -0.03044911561057799, 0.047974859105992126, 0.05555762483867889, 0.07018985752103102, -0.046763572760699396, -0.20815921561584838, -0.19958752448076494, -0.0764296910369036, -0.07216684546645612, -0.08998008118372648, 0.05542551071004178, -0.020253585238036168, 0.08626143508780497, 0.01458086162983423, 0.09178802984851638, 0.15085809537000297, 0.02016679882636655, -0.058870553219154784, -0.05057901999693975, 0.004252958475714536, -0.017481551055232625, -0.023349254552395237, -0.01677267161239705, 0.03636346680243673, -0.0105964833672671, -0.05867069876678259, 0.05837871715072628, 0.0022427332147748604, 0.06806296909646126, -0.026928113445025346, 0.001567209617714991, -0.10474438701279541, -0.13612564590340565, -0.1845795114822125, -0.17627310271549781, -0.01688599150885727, -0.12552099106203496, -0.10773285705185773, 0.07121969344603568, 0.09574586759699497, -0.044510575467009136, 0.040319101825234856, 0.06803605798533803, 0.02945891943688672, -0.009778768723818148, -0.009908883356014102, 0.05987416952783756, 0.04941741418493229, 0.05023154560130657, -0.06542689388016504, -0.037855917453840975, 0.05457705809043254, -0.01268021411465709, 0.030724051268940063, 0.08758711403117728, 0.04363327488672997, 0.051838673841972924, 0.10504176294723101, 0.1005813466276842, -0.005774662843254554, -0.06188849869388477, -0.1529554710738669, -0.04461128359111667, -0.07151611554249816, -0.05690976084985986, -0.05367148890470259, 0.06472588138266895, 0.09500278542798445, 0.03343994869737584, 0.08697450454728535, 0.034816856608572554, -0.06435328024316525, -0.03763070229405366, 